<?xml version="1.0"?>
<opencv_storage>
<opencv_ml_svm>
  <format>3</format>
  <svmType>C_SVC</svmType>
  <kernel>
    <type>LINEAR</type></kernel>
  <C>1.</C>
  <term_criteria><iterations>1000</iterations></term_criteria>
  <var_count>1024</var_count>
  <class_count>4</class_count>
  <class_labels type_id="opencv-matrix">
    <rows>4</rows>
    <cols>1</cols>
    <dt>i</dt>
    <data>
      1 2 3 4</data></class_labels>
  <sv_total>6</sv_total>
  <support_vectors>
    <_>
      -1.38565711e-05 2.73075102e-06 -3.1030263e-06 0. 0. 0. 0.
      -1.52255707e-05 -1.52255707e-05 -1.52255707e-05 -1.52255707e-05
      -2.84540693e-05 -2.84540693e-05 -2.84540693e-05 -2.84540693e-05
      -2.84540693e-05 -2.84540693e-05 -2.84540693e-05 -2.84540693e-05
      -2.84540693e-05 -2.84540693e-05 -1.32284995e-05 -1.32284995e-05
      -1.32284995e-05 -1.32284995e-05 -1.32284995e-05 0. 0. 0.
      6.02051659e-06 2.49462682e-05 1.25905967e-06 -1.38565711e-05
      2.73075102e-06 -3.1030263e-06 0. 0. 0. 0. -1.52255707e-05
      -1.52255707e-05 -1.52255707e-05 -1.52255707e-05 -2.84540693e-05
      -2.84540693e-05 -2.84540693e-05 -1.52255707e-05 -1.52255707e-05
      -1.52255707e-05 -1.52255707e-05 -1.52255707e-05 -1.52255707e-05
      -2.84540693e-05 -2.02452647e-05 -2.02452647e-05 -2.02452647e-05
      -1.32284995e-05 -1.32284995e-05 0. 0. 0. -9.20505408e-06
      9.72069756e-06 1.25905967e-06 -1.38565711e-05 2.73075102e-06
      -3.1030263e-06 0. 0. 0. 0. -1.52255707e-05 -1.52255707e-05
      -1.52255707e-05 -1.52255707e-05 -2.84540693e-05 -2.84540693e-05 0.
      -4.15919421e-05 -5.68175128e-05 -5.68175128e-05 -6.38342754e-05
      -6.38342754e-05 -6.38342754e-05 -2.2242335e-05 -2.02452647e-05
      -2.02452647e-05 -2.02452647e-05 -2.02452647e-05 -2.02452647e-05 0.
      0. -1.52255707e-05 -9.20505408e-06 9.72069756e-06 1.25905967e-06
      -2.70850705e-05 2.73075102e-06 -3.1030263e-06 0. 0. 0. 0.
      -1.52255707e-05 -1.52255707e-05 -1.52255707e-05 -1.52255707e-05 0.
      -4.15919421e-05 -4.15919421e-05 -4.15919421e-05 -5.70413704e-06
      -2.7946473e-05 -2.7946473e-05 -6.33066302e-05 -6.33066302e-05
      -6.38342754e-05 -6.38342754e-05 -2.02452647e-05 -2.02452647e-05
      -2.02452647e-05 -2.02452647e-05 -2.02452647e-05 0. -1.52255707e-05
      -9.20505408e-06 9.72069756e-06 1.25905967e-06 -2.70850705e-05
      2.73075102e-06 -3.1030263e-06 0. 0. 0. 0. -1.52255707e-05
      -1.52255707e-05 -1.52255707e-05 0. -4.15919421e-05 -2.87739986e-05
      -2.39959081e-05 7.11380562e-06 -3.53275595e-06 -2.18156183e-05
      -2.34593535e-05 -2.34593535e-05 -3.35992772e-05 -2.06988307e-06
      -6.38342754e-05 -6.18372069e-05 -2.02452647e-05 -2.02452647e-05
      -2.02452647e-05 -2.02452647e-05 0. -1.52255707e-05 -9.20505408e-06
      9.72069756e-06 1.25905967e-06 -2.70850705e-05 2.73075102e-06
      -3.1030263e-06 0. 0. 0. 0. -1.52255707e-05 -1.52255707e-05 0. 0.
      -4.15919421e-05 1.06956495e-05 2.45831689e-05 -7.93700838e-06
      -1.57723898e-05 -4.32882589e-05 -5.36855805e-05 7.55116753e-06
      -2.06988307e-06 -2.59752824e-06 -3.23048844e-05 -6.18372069e-05
      -2.02452647e-05 -2.02452647e-05 -2.02452647e-05 -2.02452647e-05 0.
      -1.52255707e-05 -9.20505408e-06 9.72069756e-06 1.25905967e-06
      -2.70850705e-05 2.73075102e-06 -3.1030263e-06 0. 0. 0. 0.
      -1.52255707e-05 0. 0. 0. -1.18950056e-05 -6.23342885e-06
      2.58375007e-06 -2.81483335e-05 3.08690005e-07 -1.01359692e-05
      3.20282415e-05 2.65524541e-05 -5.68768883e-06 -2.58069904e-05
      -2.528812e-05 -6.18372069e-05 -2.02452647e-05 -2.02452647e-05
      -2.02452647e-05 -2.02452647e-05 0. -1.52255707e-05 -9.20505408e-06
      9.72069756e-06 1.25905967e-06 -2.70850705e-05 2.73075102e-06
      -3.1030263e-06 0. 0. 0. 0. 0. 0. -4.0111765e-05 -8.16426254e-05
      -4.57548231e-05 -3.69376467e-05 -3.29781724e-05 -2.6077787e-05
      4.28379826e-05 7.48600796e-05 4.61963828e-05 3.90450077e-05
      1.65799374e-05 -2.49492805e-05 -3.20628351e-05 -5.48204407e-05
      -6.18372069e-05 -2.02452647e-05 -2.02452647e-05 -2.02452647e-05 0.
      -1.52255707e-05 -9.20505408e-06 9.72069756e-06 1.25905967e-06
      -2.70850705e-05 2.73075102e-06 -3.1030263e-06 0. 0. 0. 0.
      -3.95213938e-05 -4.0111765e-05 -1.80504012e-05 -8.16426254e-05
      -1.34672337e-05 -3.69376467e-05 1.57651448e-05 1.25673096e-05
      1.8043098e-05 -4.34245885e-05 -2.14775519e-05 -7.74250748e-06
      -5.30655743e-05 1.66426616e-05 -3.94310664e-05 -5.48204407e-05
      -6.18372069e-05 -2.02452647e-05 -2.02452647e-05 -2.02452647e-05
      -7.01676527e-06 -1.52255707e-05 -9.20505408e-06 9.72069756e-06
      1.25905967e-06 -2.70850705e-05 2.73075102e-06 -1.0119792e-05
      -7.01676527e-06 -7.01676527e-06 -7.01676527e-06 -3.95213938e-05
      -3.95213938e-05 1.21758267e-05 -1.80504012e-05 -4.93550397e-05
      -0.00011900055 -0.000107299333 -4.1049374e-05 1.2971891e-05
      4.88596961e-05 9.39229358e-06 2.94885394e-05 -2.52636164e-05
      -5.30655743e-05 -5.35932195e-05 -0.00010907658 -5.48204407e-05
      -5.48204407e-05 -2.02452647e-05 -2.02452647e-05 -2.02452647e-05
      -7.01676527e-06 -1.52255707e-05 -9.20505408e-06 9.72069756e-06
      1.25905967e-06 -3.41018349e-05 -4.28601425e-06 -1.0119792e-05
      -7.01676527e-06 -7.01676527e-06 -7.01676527e-06 -4.65381599e-05
      7.98810561e-06 -2.28284916e-05 1.20658069e-05 -7.9579986e-05
      -6.57073906e-05 -1.81066098e-05 -1.35733007e-05 -4.82648575e-05
      4.88596961e-05 -2.89864602e-05 -3.78560217e-05 4.96261055e-06
      -5.30655743e-05 -5.35932195e-05 -0.00010907658 -0.000146466235
      -5.48204407e-05 -2.02452647e-05 -2.02452647e-05 -2.02452647e-05
      -7.01676527e-06 -1.52255707e-05 -9.20505408e-06 9.72069756e-06
      1.25905967e-06 -3.41018349e-05 -4.28601425e-06 -1.0119792e-05
      -7.01676527e-06 -7.01676527e-06 -7.01676527e-06 -4.65381599e-05
      7.39773577e-06 -2.28284916e-05 7.28771693e-06 -3.82791086e-06
      8.35750507e-06 4.19413882e-05 2.32490675e-05 -8.7434637e-06
      9.95329628e-06 -2.95141053e-05 -3.72656505e-05 4.96261055e-06
      -7.05866842e-05 -9.51851616e-05 -0.000122305079 -0.000146466235
      -2.02452647e-05 -2.02452647e-05 -2.02452647e-05 -2.02452647e-05
      -7.01676527e-06 -1.52255707e-05 -9.20505408e-06 9.72069756e-06
      -5.75770582e-06 -3.41018349e-05 -4.28601425e-06 -1.0119792e-05
      -7.01676527e-06 -7.01676527e-06 -4.65381599e-05 -4.65381599e-05
      -4.0111765e-05 6.41919087e-07 1.21175544e-05 -2.82625588e-05
      1.96881829e-05 3.64656007e-05 4.27600062e-05 0.000108488697
      0.000113644412 4.01314064e-05 3.23798595e-05 4.43818935e-05
      -4.25331127e-05 -9.51851616e-05 -9.2597722e-05 -0.000146466235
      -2.02452647e-05 -2.02452647e-05 -2.02452647e-05 -2.02452647e-05 0.
      -1.52255707e-05 -9.20505408e-06 9.72069756e-06 -5.75770582e-06
      -3.41018349e-05 -4.28601425e-06 -1.0119792e-05 -7.01676527e-06
      -7.01676527e-06 -4.65381599e-05 -4.65381599e-05 -1.60509844e-05
      2.28800418e-05 2.34704112e-05 -4.00672907e-05 5.89101091e-06
      3.25061264e-05 8.85116096e-05 0.000101337318 9.84188446e-05
      4.4909495e-05 2.15363366e-06 2.7899523e-06 -4.25331127e-05
      -9.31880932e-05 -6.2371495e-05 -0.000111891059 -2.02452647e-05
      -2.02452647e-05 -2.02452647e-05 -7.01676527e-06 0. -1.52255707e-05
      -9.20505408e-06 9.72069756e-06 -5.75770582e-06 -3.41018349e-05
      -4.28601425e-06 -1.0119792e-05 -7.01676527e-06 -7.01676527e-06
      -7.01676527e-06 -4.65381599e-05 2.34704112e-05 2.34704112e-05
      2.95782193e-05 -4.00672907e-05 -5.37573396e-06 1.40880065e-05
      8.85116096e-05 7.84793228e-05 9.17730431e-05 1.4683269e-05
      -2.12947325e-05 -2.00680424e-05 -6.45334003e-05 -6.2371495e-05
      -6.2371495e-05 -8.98907747e-05 -2.02452647e-05 -2.02452647e-05
      -2.02452647e-05 0. 0. -1.52255707e-05 -9.20505408e-06
      9.72069756e-06 -5.75770582e-06 -3.41018349e-05 -4.28601425e-06
      -1.0119792e-05 -7.01676527e-06 -7.01676527e-06 -7.01676527e-06
      -7.01676527e-06 0. 2.34704112e-05 0. -6.35377e-05 -5.37573396e-06
      7.76257075e-05 8.85116096e-05 6.32537558e-05 6.89150474e-05
      -8.76509603e-06 -6.28866765e-05 -4.60278025e-05 -6.25363318e-05
      -6.2371495e-05 -2.77963154e-05 -8.98907747e-05 -2.02452647e-05
      -2.02452647e-05 -2.02452647e-05 0. 0. -1.52255707e-05
      -9.20505408e-06 9.72069756e-06 -5.75770582e-06 -3.41018349e-05
      -4.28601425e-06 -1.0119792e-05 -7.01676527e-06 -7.01676527e-06
      -7.01676527e-06 -7.01676527e-06 0. 0. 0. 0. 5.81619679e-05
      7.76257075e-05 8.85116096e-05 6.32537558e-05 -1.42294186e-06
      -5.03570373e-05 -7.41534168e-05 -5.9256301e-05 7.21129436e-06
      -2.77963154e-05 -5.932571e-05 -8.98907747e-05 -2.02452647e-05
      -2.02452647e-05 0. 0. 0. -1.52255707e-05 -9.20505408e-06
      2.70393275e-06 -5.75770582e-06 -3.41018349e-05 -4.28601425e-06
      -1.0119792e-05 -7.01676527e-06 -7.01676527e-06 -7.01676527e-06
      -7.01676527e-06 0. 0. 0. 0. 5.81619679e-05 7.76257075e-05
      6.85079503e-05 -6.49386948e-06 -4.3014883e-05 -5.03570373e-05
      -9.61537007e-05 -2.90300741e-05 -6.8860616e-05 -2.77963154e-05
      -3.73254225e-05 -2.02452647e-05 -2.02452647e-05 -2.02452647e-05 0.
      0. 0. -1.52255707e-05 -9.20505408e-06 2.70393275e-06
      -5.75770582e-06 -3.41018349e-05 -4.28601425e-06 -1.0119792e-05
      -7.01676527e-06 -7.01676527e-06 -7.01676527e-06 -7.01676527e-06 0.
      0. 0. 0. 5.81619679e-05 4.95821951e-05 3.82817198e-05
      -4.86761819e-05 -4.3014883e-05 -7.23573248e-05 -7.91559723e-05
      -4.33382484e-05 -2.72686702e-05 -5.79603102e-06 3.23200875e-05
      -2.02452647e-05 -2.02452647e-05 0. 0. 0. 0. -1.52255707e-05
      -9.20505408e-06 9.72069756e-06 -5.75770582e-06 -3.41018349e-05
      -4.28601425e-06 -1.0119792e-05 -7.01676527e-06 -7.01676527e-06
      -7.01676527e-06 -7.01676527e-06 0. 0. 0. 0. 5.81619679e-05
      1.93559681e-05 -4.34219874e-05 -4.86761819e-05 -6.50151705e-05
      -8.55858234e-05 -2.38186403e-05 -8.76307331e-06 -2.72686702e-05
      -5.79603102e-06 3.23200875e-05 -2.02452647e-05 -1.32284995e-05 0.
      0. 0. 0. -1.52255707e-05 -9.20505408e-06 9.72069756e-06
      -5.75770582e-06 -3.41018349e-05 -4.28601425e-06 -1.0119792e-05
      -7.01676527e-06 -7.01676527e-06 -7.01676527e-06 -7.01676527e-06 0.
      0. 0. 0. 1.27101703e-05 -6.2347739e-05 -4.34219874e-05
      -7.06764695e-05 -7.82436691e-05 -1.58382009e-05 -5.88889743e-05
      -8.76307331e-06 -5.26838585e-06 6.38494821e-05 3.23200875e-05
      -1.32284995e-05 0. 0. 0. 0. 0. -1.52255707e-05 -9.20505408e-06
      9.72069756e-06 -5.75770582e-06 -3.41018349e-05 -4.28601425e-06
      -1.0119792e-05 -7.01676527e-06 -7.01676527e-06 -7.01676527e-06 0.
      0. 0. 0. -4.54517976e-05 -2.74015947e-05 -6.2347739e-05
      -6.54222749e-05 -8.39049681e-05 -8.49604567e-06 -3.50925948e-05
      -2.51882011e-05 1.32372115e-05 6.43771273e-05 6.38494821e-05
      3.93368537e-05 0. 0. 0. 0. 0. 0. -1.52255707e-05 -9.20505408e-06
      9.72069756e-06 -5.75770582e-06 -3.41018349e-05 -4.28601425e-06
      -1.0119792e-05 -7.01676527e-06 -7.01676527e-06 -7.01676527e-06 0.
      0. 0. -3.0226227e-05 -8.4973195e-05 -6.89935332e-05
      -8.43480229e-05 -7.86507735e-05 -4.97192632e-05 -4.29760112e-05
      -3.50925948e-05 1.59017509e-06 1.32372115e-05 6.43771273e-05
      7.08662483e-05 5.25653522e-05 0. 0. 0. 0. 0. 0. 0. -9.20505408e-06
      9.72069756e-06 -5.75770582e-06 -3.41018349e-05 -4.28601425e-06
      -1.0119792e-05 -7.01676527e-06 -7.01676527e-06 -7.01676527e-06 0.
      0. 0. -8.4973195e-05 -0.000127155508 -9.24639462e-05
      -8.43480229e-05 -3.71577989e-05 -6.2799365e-05 -6.9342379e-05
      -5.4684253e-05 -4.0001767e-05 4.1290783e-05 2.98019495e-05
      7.08662483e-05 5.25653522e-05 0. 0. 0. 0. 0. 0. 0. -9.20505408e-06
      2.49462682e-05 1.25905967e-06 -3.41018349e-05 -4.28601425e-06
      -1.0119792e-05 -7.01676527e-06 -7.01676527e-06 -7.01676527e-06 0.
      0. -6.97476207e-05 -0.000127155508 -0.000127155508 -0.00011446423
      -6.73502946e-05 -6.72819151e-05 -4.75737943e-05 -4.73420951e-05
      -4.18663076e-05 2.96437447e-05 4.1290783e-05 2.98019495e-05
      4.25028047e-05 1.09734101e-05 -4.15919421e-05 -4.15919421e-05 0.
      0. 0. 0. 0. 6.02051659e-06 2.49462682e-05 1.25905967e-06
      -3.41018349e-05 -4.28601425e-06 -1.0119792e-05 -7.01676527e-06
      -7.01676527e-06 -7.01676527e-06 0. -6.97476207e-05 -8.55635662e-05
      -0.000127155508 -0.000149155792 -0.00011446423 -0.000127700638
      -0.000103934537 -8.25781099e-05 -9.95686132e-05 -2.44473104e-05
      -2.2582768e-05 1.80813186e-05 1.28042211e-05 1.22765759e-05
      -1.92528169e-05 -4.15919421e-05 -4.15919421e-05 -4.15919421e-05 0.
      0. 0. 0. 6.02051659e-06 2.49462682e-05 1.25905967e-06
      -3.41018349e-05 -4.28601425e-06 -1.0119792e-05 -7.01676527e-06
      -7.01676527e-06 0. -3.0226227e-05 -6.97476207e-05 -8.55635662e-05
      -0.00010756385 -0.000149155792 -0.000157816845 -0.000127110266
      -8.870897e-05 -8.47494957e-05 -6.58109057e-05 -2.39196652e-05
      -2.25154745e-05 9.3095332e-06 -9.19606464e-06 -9.72370981e-06
      -4.12531044e-05 -0.000100835219 -7.06089922e-05 -7.01676527e-06
      -7.01676527e-06 0. 0. 0. 6.02051659e-06 2.49462682e-05
      1.25905967e-06 -3.41018349e-05 -4.28601425e-06 -1.0119792e-05
      -7.01676527e-06 -7.01676527e-06 0. -6.97476207e-05 -7.03379919e-05
      -8.55635662e-05 -8.55635662e-05 -0.000177209353 -0.00011622491
      -9.31254617e-05 -4.77073954e-05 -4.37479212e-05 -0.000101404316
      -9.59285244e-05 -0.000129552849 -6.2238978e-05 -4.5384415e-05
      -7.6913806e-05 -7.6913806e-05 -5.92432771e-05 -2.90170501e-05
      -2.90170501e-05 -7.01676527e-06 0. 0. 0. 6.02051659e-06
      2.49462682e-05 1.25905967e-06 -2.08733363e-05 -4.28601425e-06
      -1.0119792e-05 -7.01676527e-06 0. -3.95213938e-05 -4.0111765e-05
      -5.53373357e-05 -5.53373357e-05 -0.000124982849 -0.000124982849
      -0.000103519786 -6.51947776e-05 -5.70025622e-05 -8.77346465e-05
      -0.000148077088 -0.000154375666 -0.000169601888 -0.000163524761
      -0.0001164352 -9.21393803e-05 -0.000106621163 -9.866256e-05
      -2.90170501e-05 -2.90170501e-05 -7.01676527e-06 0. 0. 0.
      6.02051659e-06 2.49462682e-05 1.25905967e-06 -2.08733363e-05
      -4.28601425e-06 -3.1030263e-06 0. 0. -3.95213938e-05
      -4.0111765e-05 -5.53373357e-05 -5.53373357e-05 -0.000124982849
      -0.000138211341 -0.000138211341 -8.86651833e-05 -4.78202201e-05
      -6.96938368e-05 -9.9810044e-05 -0.000133961366 -0.000131999608
      -0.000131999608 -0.00010914162 -0.000131141904 -9.16205099e-05
      -2.90170501e-05 -2.90170501e-05 -2.90170501e-05 -1.32284995e-05
      -1.32284995e-05 0. 0. 6.02051659e-06 2.49462682e-05 1.25905967e-06
      -1.38565711e-05 2.73075102e-06 -3.1030263e-06 0. 0. 0. 0.
      -1.58159401e-05 -1.58159401e-05 -1.58159401e-05 -9.8689954e-05
      -0.000105706713 -1.41898363e-05 -8.08202731e-06 -1.86866509e-05
      -5.82080465e-05 -7.49922328e-05 -7.49922328e-05 -7.49922328e-05
      -5.21342336e-05 -5.21342336e-05 -7.49922328e-05 -2.02452647e-05
      -2.02452647e-05 -1.32284995e-05 -1.32284995e-05 -1.32284995e-05 0.
      0. 6.02051659e-06 2.49462682e-05 1.25905967e-06 -1.38565711e-05
      2.73075102e-06 -3.1030263e-06 0. 0. 0. -1.52255707e-05
      -1.52255707e-05 -1.52255707e-05 -1.52255707e-05 -2.84540693e-05
      -3.54708354e-05 -3.54708354e-05 -2.88250376e-05 -2.93630255e-05
      -3.54708354e-05 -3.54708354e-05 -3.54708354e-05 -3.54708354e-05
      -3.54708354e-05 -3.54708354e-05 -2.84540693e-05 -1.32284995e-05
      -1.32284995e-05 -1.32284995e-05 -1.32284995e-05 -1.32284995e-05 0.
      0. 6.02051659e-06 2.49462682e-05 1.25905967e-06</_>
    <_>
      2.74768754e-05 2.96174348e-05 2.00510149e-05 0. 0. 0. 0. 0. 0. 0.
      0. 0. 0. 0. 0. 0. 0. 0. 0. 0. 0. 0. 0. -5.29286735e-05
      -5.29286735e-05 0. 0. 0. 0. 3.34607139e-05 1.37044772e-05
      4.44064572e-05 2.74768754e-05 2.96174348e-05 2.00510149e-05 0. 0.
      0. 0. -5.28722194e-05 -5.28722194e-05 -5.28722194e-05
      -5.28722194e-05 -5.28722194e-05 -5.28722194e-05 -5.28722194e-05
      -5.28722194e-05 -5.28722194e-05 0. 1.28685615e-05 0. 0. 0.
      -5.29286735e-05 -5.29286735e-05 -5.29286735e-05 -5.29286735e-05
      -5.29286735e-05 0. 0. 0. 3.34607139e-05 1.37044772e-05
      4.44064572e-05 2.74768754e-05 2.96174348e-05 2.00510149e-05 0. 0.
      0. -5.28722194e-05 -5.28722194e-05 -5.28722194e-05 -5.28722194e-05
      -5.28722194e-05 -5.28722194e-05 -5.28722194e-05 -7.6384822e-05
      -7.6384822e-05 -7.6384822e-05 -6.35162651e-05 -6.35162651e-05
      -6.35162651e-05 -2.35126063e-05 -2.35126063e-05 -5.29286735e-05
      -5.29286735e-05 -5.29286735e-05 -5.29286735e-05 -5.29286735e-05
      -5.29286735e-05 0. 0. 3.34607139e-05 1.37044772e-05 4.44064572e-05
      2.74768754e-05 2.96174348e-05 2.00510149e-05 0. 0. 0. 0.
      -5.28722194e-05 -5.28722194e-05 -5.28722194e-05 -5.28722194e-05
      -5.28722194e-05 -7.6384822e-05 -7.6384822e-05 -4.7314421e-05
      -4.53752073e-05 -4.53752073e-05 -2.67449923e-05 -4.48860483e-05
      -2.35126063e-05 -2.35126063e-05 -5.29286735e-05 -5.29286735e-05
      -5.29286735e-05 -5.29286735e-05 -5.29286735e-05 -5.29286735e-05 0.
      0. 3.34607139e-05 1.37044772e-05 4.44064572e-05 2.74768754e-05
      2.96174348e-05 2.00510149e-05 0. 0. 0. 0. 0. -5.65072369e-05
      -5.65072369e-05 -5.65072369e-05 -5.65072369e-05 -6.21795043e-05
      -3.31090996e-05 -2.09948234e-06 -3.57942258e-06 -1.34558411e-06
      -1.77059846e-05 -1.77059846e-05 8.31865837e-05 6.45563705e-05
      -7.64412835e-05 -5.29286735e-05 -5.29286735e-05 -5.29286735e-05
      -5.29286735e-05 -5.29286735e-05 0. 0. 3.34607139e-05
      1.37044772e-05 4.44064572e-05 2.74768754e-05 2.96174348e-05
      2.00510149e-05 0. 0. 0. 0. 0. -3.63501954e-06 -3.63501954e-06
      -3.63501954e-06 -3.63501954e-06 5.24133684e-05 2.49616187e-05
      -3.13318887e-05 -2.7645001e-08 -1.78679857e-05 -4.69383886e-05
      2.47701846e-05 3.39587605e-05 1.16276942e-05 -2.35126063e-05
      -2.35126063e-05 0. 0. -5.29286735e-05 -5.29286735e-05
      -5.29286735e-05 0. 3.34607139e-05 1.37044772e-05 4.44064572e-05
      2.74768754e-05 2.96174348e-05 2.00510149e-05 0. 0. 0. 0.
      -4.55928057e-05 -4.92278268e-05 -4.92278268e-05 -2.01574203e-05
      -2.0131969e-05 -8.81015367e-05 2.85820315e-05 -2.56361927e-05
      -4.45330006e-05 -6.23733358e-05 -2.68873755e-05 9.62444301e-06
      -4.37261806e-05 -6.23563974e-05 -2.35126063e-05 -2.35126063e-05 0.
      0. -5.29286735e-05 -5.29286735e-05 0. 0. 3.34607139e-05
      1.37044772e-05 4.44064572e-05 2.74768754e-05 2.96174348e-05
      2.00510149e-05 0. 0. 0. -4.55928057e-05 -4.55928057e-05
      -4.55928057e-05 -1.6522401e-05 -1.64969479e-05 -9.18087244e-05
      -4.36829614e-05 -1.23787177e-05 -9.79011893e-05 -8.57094165e-06
      3.61117418e-06 5.55944462e-06 -4.27629639e-05 -7.28634841e-05
      -4.59008916e-05 -0.000167430582 -8.61106237e-05 -4.50451917e-05 0.
      -5.29286735e-05 -5.29286735e-05 0. 0. 3.34607139e-05
      -9.80812911e-06 2.08938509e-05 2.74768754e-05 2.96174348e-05
      2.00510149e-05 0. 0. 0. -4.55928057e-05 -4.55928057e-05
      -1.6522401e-05 -3.18009224e-05 -3.18009224e-05 -7.85972516e-05
      -5.99670348e-05 -0.000100165227 -2.16316894e-05 1.03303182e-05
      -2.64068276e-05 -7.50130221e-06 -8.61951321e-06 -4.93164043e-05
      -8.08151817e-05 -5.26499061e-05 -6.85577979e-05 -4.50451917e-05
      -4.50451917e-05 -5.29286735e-05 -5.29286735e-05 0. 0.
      3.34607139e-05 -9.80812911e-06 -3.20348263e-05 2.74768754e-05
      2.96174348e-05 2.00510149e-05 0. 0. 0. 0. -4.55928057e-05
      3.11336885e-06 -3.18009224e-05 -1.29041164e-05 -2.87203457e-05
      -4.69551605e-06 -2.35384905e-05 7.27854786e-06 7.83482756e-05
      4.40182121e-05 2.95944301e-05 -8.61951321e-06 -4.93164043e-05
      5.0477712e-07 -7.00113742e-05 -6.85577979e-05 -4.50451917e-05
      -4.50451917e-05 -5.29286735e-05 -5.29286735e-05 0. 0.
      9.94810671e-06 -9.80812911e-06 -3.20348263e-05 3.96426913e-06
      6.10482812e-06 -3.46159163e-06 -2.35126063e-05 0. 0. 0.
      5.04905911e-05 1.96357705e-05 3.85325766e-05 3.26886911e-05
      -2.0219506e-05 -2.56463045e-05 8.4235171e-06 -9.36589859e-05
      -6.07917355e-06 -8.10150887e-05 -0.000111346766 1.34606862e-05
      1.14873376e-06 1.80575989e-05 -3.5097084e-05 -4.50451917e-05
      -4.50451917e-05 0. -5.29286735e-05 -5.29286735e-05 0. 0.
      9.94810671e-06 -9.80812911e-06 -3.20348263e-05 3.96426913e-06
      6.10482812e-06 -3.46159163e-06 -2.35126063e-05 0. 0. 0.
      5.04905911e-05 5.04905911e-05 6.93873953e-05 9.12409378e-05
      5.59390355e-05 7.22994373e-05 6.77436256e-05 -1.78353021e-05
      -3.3827078e-07 -5.46001138e-05 -2.07087651e-05 5.60987974e-05
      4.95563763e-05 1.80575989e-05 -3.5097084e-05 -4.50451917e-05 0. 0.
      -5.29286735e-05 -5.29286735e-05 0. 0. 9.94810671e-06
      -9.80812911e-06 -3.20348263e-05 3.96426913e-06 6.10482812e-06
      -5.63902649e-05 -2.35126063e-05 0. 0. 0. 0. 5.04905911e-05
      3.67371467e-05 4.56466369e-05 2.54246679e-05 3.86732172e-05
      4.60445699e-06 -1.48635045e-05 -4.87459147e-05 -5.37228789e-06
      -2.07087651e-05 1.10536048e-05 -3.31584238e-06 5.29718891e-05
      7.64844954e-05 -4.50451917e-05 0. -5.29286735e-05 -5.29286735e-05
      0. 0. 0. 9.94810671e-06 -9.80812911e-06 -3.20348263e-05
      3.96426913e-06 6.10482812e-06 -5.63902649e-05 -2.35126063e-05 0.
      0. 0. 0. 0. 4.89628883e-06 4.89628883e-06 4.21342629e-05
      -2.44659477e-05 -3.48019094e-05 -3.24163266e-05 -4.87459147e-05
      -9.0073072e-06 -4.78563925e-05 5.94612466e-05 3.15984471e-05
      9.96709488e-08 2.36122778e-05 0. -5.29286735e-05 -5.29286735e-05
      -5.29286735e-05 0. 0. 0. 9.94810671e-06 -9.80812911e-06
      -3.20348263e-05 2.74768754e-05 -4.68238468e-05 -5.63902649e-05
      -2.35126063e-05 0. 0. 0. 0. 0. 4.89628883e-06 4.89628883e-06
      -1.16812871e-05 6.55272788e-06 1.807031e-05 -7.58216484e-05
      -5.95665988e-05 2.0352305e-05 -7.3490075e-05 -1.07381547e-05
      -3.64195112e-05 6.05945525e-06 1.57287941e-05 -5.29286735e-05
      -5.29286735e-05 -5.29286735e-05 0. 0. 0. 0. 9.94810671e-06
      -9.80812911e-06 -3.20348263e-05 3.96426913e-06 -4.68238468e-05
      -5.63902649e-05 0. 0. 0. 0. 0. 0. 0. -4.06965191e-05
      -1.65775746e-05 -5.38181739e-05 -0.000121187797 -0.000134248548
      -0.000138620118 -0.000103746403 -8.82280656e-05 2.94600359e-05
      -1.6541926e-05 6.05945525e-06 -1.82402778e-06 -0.000105800893
      -5.29286735e-05 -5.29286735e-05 0. 0. 0. 0. 9.94810671e-06
      -9.80812911e-06 -3.20348263e-05 3.96426913e-06 -4.68238468e-05
      -5.63902649e-05 0. 0. 0. 0. 0. 0. 0. -4.55928057e-05
      -1.29425562e-05 -3.42078565e-05 -8.80841253e-05 -6.62305829e-05
      -0.000115647352 -3.57284443e-05 -0.000123383608 -4.69875886e-05
      5.47547324e-06 -2.99551039e-06 -1.82402778e-06 -0.000123353719
      -5.29286735e-05 -5.29286735e-05 -5.29286735e-05 0. 0. 0.
      9.94810671e-06 -9.80812911e-06 -3.20348263e-05 3.96426913e-06
      -4.68238468e-05 -5.63902649e-05 0. 0. 0. 0. 0. 0. 0. 0.
      -3.64551634e-05 -3.0572839e-05 -8.44491078e-05 -6.25955654e-05
      -0.000112012327 -3.20934269e-05 -7.29184685e-05 -4.79886585e-05
      -6.65822226e-05 -7.88955222e-05 -4.68692197e-05 -0.00016839891
      -5.29286735e-05 -5.29286735e-05 -5.29286735e-05 0. 0.
      -2.35126063e-05 9.94810671e-06 -9.80812911e-06 -3.20348263e-05
      3.96426913e-06 -4.68238468e-05 -5.63902649e-05 0. 0. 0. 0. 0. 0.
      0. 0. 9.13764325e-06 -2.82037149e-06 -3.88563021e-05
      -1.70027597e-05 -6.6419525e-05 -4.49619874e-05 -6.9283451e-05
      2.4764804e-06 -4.90294005e-05 -0.000182915232 -0.000166738493
      -0.00016839891 -0.000115526687 -5.29286735e-05 -5.29286735e-05
      -5.29286735e-05 0. -2.35126063e-05 9.94810671e-06 -9.80812911e-06
      -3.20348263e-05 3.96426913e-06 -4.68238468e-05 -3.28776587e-05 0.
      0. 0. 0. 0. -5.28722194e-05 0. 0. 3.26502486e-05 5.15470565e-05
      1.95705943e-05 6.50984748e-06 5.50669502e-05 6.30818306e-07
      -6.9283451e-05 6.11149972e-06 -4.90294005e-05 -0.000182915232
      -0.000137322422 -0.000150384527 -4.50451917e-05 -9.79738688e-05
      -5.29286735e-05 -5.29286735e-05 0. -2.35126063e-05 9.94810671e-06
      -9.80812911e-06 -3.20348263e-05 -4.89644044e-05 -4.68238468e-05
      -3.28776587e-05 0. 0. 0. 0. -5.28722194e-05 -5.28722194e-05
      -7.04250415e-05 0. 3.26502486e-05 5.15470565e-05 5.04254131e-05
      7.22789555e-05 0.000104475665 0.000134957721 8.71236625e-05
      3.56058445e-05 -3.98420843e-06 -0.00013787004 -0.000182915232
      -0.000181239346 -9.79174074e-05 -4.50451917e-05 -5.29286735e-05
      -5.29286735e-05 0. -2.35126063e-05 9.94810671e-06 -9.80812911e-06
      -3.20348263e-05 -4.89644044e-05 -4.68238468e-05 -3.28776587e-05 0.
      0. 0. -5.04651398e-05 -0.000103337356 -0.000120890181
      -7.04250415e-05 -7.04250415e-05 3.26502486e-05 5.15470565e-05
      5.04254131e-05 7.22789555e-05 0.000104475665 0.000134957721
      8.71236625e-05 6.64606632e-05 -2.19421381e-05 -0.00013787004
      -0.000114357426 -0.000181239346 -7.99594854e-05 -4.50451917e-05
      -5.29286735e-05 -5.29286735e-05 0. -2.35126063e-05 9.94810671e-06
      -9.80812911e-06 -3.20348263e-05 -2.54518e-05 -2.33112405e-05
      2.00510149e-05 0. 0. 0. -5.04651398e-05 -0.000148930165
      -0.000166482991 -7.04250415e-05 -7.04250415e-05 -2.0221969e-05
      5.15470565e-05 5.04254131e-05 8.49529824e-05 0.000104475665
      9.809943e-05 3.66585227e-05 1.35884457e-05 -3.94949602e-05
      -8.43255257e-05 -0.000114357426 -0.000181239346 -7.99594854e-05
      -4.50451917e-05 -5.29286735e-05 -5.29286735e-05 0. 0.
      9.94810671e-06 -9.80812911e-06 -3.20348263e-05 -4.89644044e-05
      -2.33112405e-05 2.00510149e-05 0. 0. 0. -5.04651398e-05
      -9.96929666e-05 -0.000170118001 -0.000120890181 -7.04250415e-05
      -3.77747929e-05 -1.32516357e-06 1.94067397e-05 3.20807667e-05
      5.16034415e-05 -5.2379246e-06 -1.62136967e-05 -3.9643769e-06
      -3.94949602e-05 -8.43255257e-05 -6.38922866e-05 -0.000181239346
      -7.99594854e-05 -4.50451917e-05 -5.29286735e-05 -5.29286735e-05 0.
      0. 3.34607139e-05 -9.80812911e-06 4.44064572e-05 -4.89644044e-05
      -2.33112405e-05 2.00510149e-05 0. 0. 0. -5.41001573e-05
      -9.96929666e-05 -9.96929666e-05 -0.000170118001 -0.000166482991
      -8.82399327e-05 -6.93431211e-05 -4.86112222e-05 1.45279446e-05
      -1.64145185e-05 -5.05432145e-05 -7.93593281e-05 -7.59939621e-06
      -3.94949602e-05 -8.43255257e-05 -6.38922866e-05 -0.000110814304
      -7.99594854e-05 -4.50451917e-05 -5.29286735e-05 -5.29286735e-05 0.
      0. 3.34607139e-05 1.37044772e-05 4.44064572e-05 -4.89644044e-05
      -2.33112405e-05 2.00510149e-05 0. 0. 0. -3.63501954e-06
      -5.41001573e-05 -0.000130547778 -0.000152160079 -0.00020139727
      -0.000178877934 -0.00011493593 -9.42040278e-05 -8.15300009e-05
      -6.20073261e-05 -5.05432145e-05 -5.39239372e-05 -7.59939621e-06
      -3.94949602e-05 -3.38603895e-05 2.88835849e-06 -0.000110814304
      -7.99594854e-05 -9.79738688e-05 -5.29286735e-05 0. 0. 0.
      3.34607139e-05 1.37044772e-05 4.44064572e-05 -2.54518e-05
      -2.33112405e-05 2.00510149e-05 0. 0. 0. 0. -8.4954976e-05
      -8.4954976e-05 -0.000165462072 -0.000179652445 -0.000147002196
      -0.000107108906 -0.000123274425 -8.15300009e-05 -8.01483839e-05
      -9.405124e-05 -9.58629025e-05 -5.48146163e-05 1.09701787e-05
      3.45727349e-05 1.07153855e-05 -7.99594854e-05 -7.99594854e-05
      -5.29286735e-05 -5.29286735e-05 0. 0. 0. 3.34607139e-05
      1.37044772e-05 4.44064572e-05 -2.54518e-05 2.96174348e-05
      2.00510149e-05 0. 0. 0. 0. -3.08548188e-05 -3.44898399e-05
      -6.940413e-05 -0.000134059635 -0.000147002196 -0.000128105385
      -0.0001015296 -3.59268997e-05 -4.24287646e-05 -3.79253433e-05
      -8.91860691e-05 3.50659466e-05 7.92051724e-05 7.08036623e-06
      1.07153855e-05 -7.99594854e-05 -7.99594854e-05 -5.29286735e-05
      -5.29286735e-05 0. 0. 0. 3.34607139e-05 1.37044772e-05
      4.44064572e-05 2.74768754e-05 2.96174348e-05 2.00510149e-05 0. 0.
      0. 0. -3.08548188e-05 -5.80024462e-05 -3.44898399e-05
      -6.940413e-05 -8.17990731e-05 -6.29022688e-05 -7.12407709e-05
      -6.18009217e-05 -8.06977259e-05 -6.85200648e-05 -7.1085633e-05
      -0.000105999919 3.90423738e-05 1.07153855e-05 -4.64987679e-05
      -7.99594854e-05 -3.49142902e-05 -5.29286735e-05 -5.29286735e-05 0.
      0. 0. 3.34607139e-05 1.37044772e-05 4.44064572e-05 2.74768754e-05
      2.96174348e-05 2.00510149e-05 0. 0. 0. 0. -2.35126063e-05
      -5.80024462e-05 -5.80024462e-05 -5.80024462e-05 -9.29167363e-05
      -8.64148751e-05 -0.000112593712 -7.44749486e-05 -9.33717529e-05
      -0.000116108386 -0.000105999919 -0.000158928597 -0.00010195528
      -1.45367621e-05 -4.64987679e-05 -8.78429637e-05 0. 0. 0. 0. 0. 0.
      3.34607139e-05 1.37044772e-05 4.44064572e-05 2.74768754e-05
      2.96174348e-05 2.00510149e-05 0. 0. 0. 0. -2.35126063e-05
      -2.35126063e-05 -5.43674287e-05 -5.43674287e-05 -8.92817188e-05
      -0.000119065124 -6.91236419e-05 -6.61669037e-05 -6.61669037e-05
      -9.29167363e-05 -6.09547315e-05 -8.67357812e-05 -5.32750673e-05
      -2.24202449e-05 -8.78429637e-05 -5.29286735e-05 -5.29286735e-05 0.
      0. 0. 0. 0. 3.34607139e-05 1.37044772e-05 4.44064572e-05
      2.74768754e-05 2.96174348e-05 2.00510149e-05 0. 0. 0. 0.
      -2.35126063e-05 -2.35126063e-05 -2.35126063e-05 -2.35126063e-05
      -2.35126063e-05 -2.35126063e-05 2.80487427e-07 -1.86163179e-05
      -1.86163179e-05 -2.35126063e-05 0. -2.09666687e-05 -2.09666687e-05
      -5.29286735e-05 -5.29286735e-05 -5.29286735e-05 -5.29286735e-05 0.
      0. 0. 0. 0. 3.34607139e-05 1.37044772e-05 4.44064572e-05</_>
    <_>
      2.46982927e-06 3.93782757e-05 2.49746813e-06 0. 0. 0. 0. 0. 0. 0.
      0. 0. 0. 0. 0. 0. 0. 0. 0. 0. 0. 0. 0. 0. 0. 0. 0. -1.95052926e-05
      -1.95052926e-05 -9.80602636e-06 2.4459564e-06 9.81062294e-06
      2.46982927e-06 3.93782757e-05 2.49746813e-06 0. 0. 0. 0. 0. 0. 0.
      0. 0. 0. 0. 0. 0. 5.43197928e-07 1.15838873e-06 0. 0. 0. 0. 0. 0.
      0. 0. 0. -1.95052926e-05 -1.95052926e-05 -9.80602636e-06
      2.4459564e-06 9.81062294e-06 2.46982927e-06 3.93782757e-05
      2.49746813e-06 0. 0. 0. 0. 0. 0. 0. 0. 0. 0. 0. -7.73905849e-05
      -8.04979354e-05 -1.94896643e-06 -1.94896643e-06 -2.49216441e-06 0.
      0. 0. 0. 0. 0. 0. -1.95052926e-05 -1.95052926e-05 -1.95052926e-05
      9.69926532e-06 2.4459564e-06 9.81062294e-06 2.46982927e-06
      3.93782757e-05 2.49746813e-06 0. 0. 0. 0. 0. 0. 0. 0. 0. 0.
      -7.73905849e-05 -6.06546018e-05 -5.08650301e-05 -5.08650301e-05
      2.6525553e-05 -2.49216441e-06 0. 0. 0. 0. 0. 0. 0. -1.95052926e-05
      -1.95052926e-05 -1.95052926e-05 9.69926532e-06 2.4459564e-06
      9.81062294e-06 2.46982927e-06 3.93782757e-05 2.49746813e-06 0. 0.
      0. 0. 0. 0. 0. 0. 0. -1.41773307e-05 -7.48319289e-05
      -4.88495753e-05 -2.33087831e-05 -2.5324236e-05 -7.09747064e-06
      -7.64066863e-06 2.03502282e-06 3.93086011e-05 0. 0. 0. 0. 0.
      -1.95052926e-05 -1.95052926e-05 -1.95052926e-05 9.69926532e-06
      2.4459564e-06 9.81062294e-06 2.46982927e-06 3.93782757e-05
      2.49746813e-06 0. 0. 0. 0. 0. 0. 0. 0. 0. -4.14345013e-05
      -1.29599812e-05 -2.33087831e-05 -2.33087831e-05 -1.14274544e-05
      -7.09747064e-06 4.25265825e-05 2.03502282e-06 3.93086011e-05 0. 0.
      0. 0. -1.95052926e-05 -1.95052926e-05 -1.95052926e-05
      -1.95052926e-05 9.69926532e-06 2.4459564e-06 9.81062294e-06
      2.46982927e-06 3.93782757e-05 2.49746813e-06 0. 0. 0. 0. 0. 0. 0.
      1.38967807e-05 3.54128824e-05 -1.29599812e-05 1.37391999e-05
      -2.33087831e-05 4.40622307e-06 -2.32144566e-06 1.80107709e-05
      2.84798243e-05 -1.1530849e-06 3.93086011e-05 0. 0. 0. 0.
      -1.95052926e-05 -1.95052926e-05 -1.95052926e-05 -1.95052926e-05
      9.69926532e-06 2.4459564e-06 9.81062294e-06 2.46982927e-06
      3.93782757e-05 -1.1530849e-06 -3.65055303e-06 0. 0. 0. 0. 0.
      1.38967807e-05 4.95902132e-05 -1.35031796e-05 1.31960023e-05
      1.05546997e-05 4.32907746e-06 6.35594624e-05 1.98192647e-05
      3.91632748e-05 -4.09557015e-06 5.54938211e-08 2.64704213e-05 0. 0.
      0. 0. -1.95052926e-05 -1.95052926e-05 -1.95052926e-05
      -1.95052926e-05 9.69926532e-06 2.4459564e-06 9.81062294e-06
      2.46982927e-06 3.5727724e-05 -1.1530849e-06 -3.65055303e-06 0. 0.
      0. 0. 1.38967807e-05 4.7294212e-05 -2.78003681e-05 2.16022909e-05
      2.997505e-05 3.7726506e-05 8.09949343e-05 6.74779876e-05
      2.83810132e-05 2.12264185e-05 4.36466325e-05 1.21388257e-06
      -3.3578588e-05 1.20857874e-06 0. 0. -1.95052926e-05
      -1.95052926e-05 -1.95052926e-05 -1.95052926e-05 -1.95052926e-05
      9.69926532e-06 2.4459564e-06 9.81062294e-06 2.46982927e-06
      2.15503933e-05 -1.53304154e-05 -3.65055303e-06 0. 0. 0. 0.
      4.7294212e-05 -3.00963711e-05 -1.03266202e-05 9.90681747e-06
      1.90128267e-05 4.66092424e-05 7.26264916e-05 3.43593965e-05
      2.83810132e-05 5.17852059e-05 -7.17768103e-07 -2.52121026e-05
      -3.3578588e-05 -2.52174068e-05 0. 0. -1.95052926e-05
      -1.95052926e-05 -1.95052926e-05 -1.95052926e-05 -1.95052926e-05
      9.69926532e-06 2.4459564e-06 9.81062294e-06 2.46982927e-06
      2.15503933e-05 -1.53304154e-05 -3.65055303e-06 -3.65055303e-06 0.
      0. 3.33974313e-05 3.33974313e-05 -3.55868651e-05 -1.67923645e-05
      3.95765665e-06 2.79640972e-05 5.58566717e-05 -1.46352045e-06
      1.52641514e-05 3.12783072e-06 -4.49281606e-06 -2.7143753e-05
      -2.52121026e-05 -3.3578588e-05 -2.52174068e-05 0. 0.
      -1.95052926e-05 -1.95052926e-05 -1.95052926e-05 -2.31558442e-05
      -2.31558442e-05 9.69926532e-06 2.4459564e-06 6.16006946e-06
      2.46982927e-06 2.15503933e-05 -1.53304154e-05 -3.65055303e-06
      -3.65055303e-06 0. 0. 3.33974313e-05 3.33974313e-05
      -1.65118145e-05 -2.26295615e-05 -1.20539507e-05 1.26491625e-06
      -4.46553258e-06 -6.33776217e-05 -7.26697635e-06 -7.73081865e-06
      -5.7346344e-05 -2.7143753e-05 -2.52121026e-05 -3.3578588e-05
      -2.52174068e-05 -2.64275441e-05 -3.36826233e-05 -3.36826233e-05
      -1.95052926e-05 -2.31558442e-05 -2.31558442e-05 -2.31558442e-05
      9.69926532e-06 2.4459564e-06 -8.01726128e-06 2.46982927e-06
      2.15503933e-05 -1.53304154e-05 -3.65055303e-06 -3.65055303e-06 0.
      0. 0. -3.55868651e-05 -8.26955729e-05 -6.40603757e-05
      -1.73440803e-05 8.01525821e-05 -5.51742778e-05 -1.04036499e-05
      -2.13137337e-05 -6.05843488e-05 -5.7346344e-05 -2.7143753e-05
      -2.52121026e-05 -3.3578588e-05 4.4436149e-08 -4.06048748e-05
      -3.36826233e-05 -3.36826233e-05 -1.95052926e-05 -2.31558442e-05
      -2.31558442e-05 -2.31558442e-05 6.04871184e-06 2.4459564e-06
      -8.01726128e-06 2.46982927e-06 2.15503933e-05 -3.48357062e-05
      -2.31558442e-05 -3.65055303e-06 0. 0. 8.40628854e-06
      -6.89842927e-05 -7.36324364e-05 -5.515054e-05 -5.29758381e-06
      2.00670638e-05 2.22163053e-05 -2.44504063e-05 -4.77397189e-05
      -4.55703193e-05 -5.7346344e-05 -2.7143753e-05 -7.62675554e-05
      -3.3578588e-05 4.4436149e-08 -4.06048748e-05 -3.36826233e-05
      -3.36826233e-05 -1.41773307e-05 -2.31558442e-05 -2.31558442e-05
      -2.31558442e-05 6.04871184e-06 2.4459564e-06 -8.01726128e-06
      2.46982927e-06 2.04510093e-06 -3.48357062e-05 -2.31558442e-05
      -3.65055303e-06 0. 0. -6.89842927e-05 -6.89842927e-05
      -5.66630188e-05 -5.66630188e-05 1.78978407e-05 -1.40979528e-05
      2.07038283e-05 -9.16979043e-05 -8.01556089e-05 -1.24517283e-05
      -8.49824646e-05 -5.47798772e-05 -7.62675554e-05 -3.3578588e-05
      4.4436149e-08 -6.01101674e-05 -3.36826233e-05 -1.41773307e-05
      -1.41773307e-05 -2.31558442e-05 -2.31558442e-05 -3.65055303e-06
      6.04871184e-06 2.4459564e-06 -4.36670825e-06 2.46982927e-06
      2.04510093e-06 -3.48357062e-05 -2.31558442e-05 -3.65055303e-06 0.
      -7.73905849e-05 -7.73905849e-05 -8.31616271e-05 -9.1567912e-05
      8.6707214e-06 -4.37332164e-05 -4.6525307e-05 -1.34490101e-05
      -0.000140900884 -7.10225868e-05 -4.00878525e-05 -7.09357118e-05
      -2.02943065e-05 -4.98400077e-05 -3.3578588e-05 2.64704213e-05
      -6.01101674e-05 -3.36826233e-05 -1.41773307e-05 -1.41773307e-05
      -2.31558442e-05 -2.31558442e-05 -3.65055303e-06 6.04871184e-06
      2.4459564e-06 9.81062294e-06 2.46982927e-06 2.04510093e-06
      -3.48357062e-05 -2.31558442e-05 -3.65055303e-06 0. -7.73905849e-05
      -9.1567912e-05 -9.1567912e-05 -9.1567912e-05 -6.93877664e-05
      -4.6525307e-05 -2.79163105e-05 -5.9380287e-05 -5.6222405e-05
      -5.30857324e-05 -4.00878525e-05 -4.45097248e-05 -3.26735353e-05
      -4.98400077e-05 -3.3578588e-05 6.96513007e-06 -6.01101674e-05
      -1.41773307e-05 -1.41773307e-05 -1.41773307e-05 -2.31558442e-05
      -2.31558442e-05 -2.31558442e-05 6.04871184e-06 2.4459564e-06
      9.81062294e-06 -1.70354633e-05 5.69565373e-06 -3.48357062e-05
      -2.31558442e-05 -3.65055303e-06 -7.73905849e-05 -7.73905849e-05
      -9.1567912e-05 -9.1567912e-05 -3.57647405e-05 -8.83290268e-05
      -4.6525307e-05 -6.83890539e-05 -8.21572758e-05 -5.6222405e-05
      -5.30857324e-05 3.84891962e-07 -4.45097248e-05 -6.24599215e-06
      -2.97339284e-05 -3.3578588e-05 6.96513007e-06 -6.01101674e-05
      -4.06048748e-05 -1.41773307e-05 -3.36826233e-05 -2.31558442e-05
      -2.31558442e-05 -2.31558442e-05 -1.34565798e-05 2.4459564e-06
      9.81062294e-06 -1.70354633e-05 5.69565373e-06 -3.48357062e-05
      -2.31558442e-05 -8.10411366e-05 -7.73905849e-05 -7.73905849e-05
      -9.1567912e-05 -0.00010950477 -0.000146778344 -0.000165719612
      -0.000164388635 -0.000145779632 -7.48693856e-05 -5.6222405e-05
      -1.2612988e-05 -7.73496765e-07 -9.50067115e-05 -8.36365725e-05
      -0.000107124513 -5.30838806e-05 6.96513007e-06 -6.01101674e-05
      -4.06048748e-05 -1.41773307e-05 -3.36826233e-05 -2.31558442e-05
      -2.31558442e-05 -2.31558442e-05 -1.34565798e-05 2.4459564e-06
      9.81062294e-06 -1.70354633e-05 5.69565373e-06 -3.48357062e-05
      -2.31558442e-05 -8.10411366e-05 -7.73905849e-05 -9.1567912e-05
      -9.1567912e-05 -0.000113155322 -0.000179896932 -0.000165719612
      -0.000164388635 -0.000135438037 -7.48693856e-05 -5.6222405e-05
      -1.2612988e-05 -7.73496765e-07 -9.50067115e-05 -8.36365725e-05
      -0.000107124513 -0.000104046921 6.96513007e-06 -4.06048748e-05
      -4.06048748e-05 -1.41773307e-05 -3.36826233e-05 -2.31558442e-05
      -2.31558442e-05 -2.31558442e-05 -1.34565798e-05 2.4459564e-06
      9.81062294e-06 -1.70354633e-05 5.69565373e-06 -3.48357062e-05
      -2.31558442e-05 -3.65055303e-06 -7.73905849e-05 -9.1567912e-05
      -0.00010950477 -0.000179896932 -0.000165719612 -0.000206192344
      -0.000190816179 -0.000170125059 -0.000141611003 -8.24912786e-05
      -7.9354606e-05 -4.10875691e-05 -9.50067115e-05 -8.36365725e-05
      -0.000126629806 -0.000137165509 -5.97764847e-05 -0.000107346488
      -7.42279008e-05 -6.73056493e-05 -3.36826233e-05 -2.31558442e-05
      -2.31558442e-05 -2.31558442e-05 6.04871184e-06 2.4459564e-06
      9.81062294e-06 -1.70354633e-05 5.69565373e-06 -3.48357062e-05
      -2.31558442e-05 -3.65055303e-06 0. -3.21141888e-05 -3.21141888e-05
      -0.000128932341 -0.000142979101 -0.000155229311 -0.000113425594
      -0.000191712475 -0.000141611003 -0.000123430073 -0.000138436342
      -0.000107987857 -0.000136366201 -0.000124110869 -0.000126629806
      -5.97749276e-05 -8.62024681e-05 -0.000167324528 -0.000153277768
      -6.73056493e-05 -3.36826233e-05 -2.31558442e-05 -2.31558442e-05
      -2.31558442e-05 6.04871184e-06 2.4459564e-06 9.81062294e-06
      -1.70354633e-05 1.98729849e-05 -3.48357062e-05 -2.31558442e-05
      -3.65055303e-06 0. -3.21141888e-05 -3.21141888e-05 -9.53093186e-05
      -0.000109356079 -0.000135783615 -9.39798992e-05 -0.000128499218
      -8.58078274e-05 -0.00014501749 -0.000160023759 -0.000151800457
      -5.89756237e-05 -4.67202917e-05 -7.5666765e-05 -0.000104139326
      -0.000104139326 -0.000167324528 -0.000167324528 -0.000100582911
      -7.41569238e-05 -6.36301484e-05 -4.95833883e-05 -3.65055303e-06
      6.04871184e-06 2.4459564e-06 9.81062294e-06 -1.70354633e-05
      1.98729849e-05 -1.70078238e-05 -3.65055303e-06 0. 0.
      -1.41773307e-05 -3.21141888e-05 -6.21907238e-05 -6.21907238e-05
      -0.000102665028 -5.06586002e-05 -6.17576006e-05 -1.9066214e-05
      -6.98695803e-05 -9.55781434e-05 -8.50588331e-05 -4.05763531e-05
      -6.62255843e-05 -7.5666765e-05 -0.000107789885 -7.41668555e-05
      -0.000151638364 -0.000118519769 -7.41569238e-05 -7.41569238e-05
      -6.36301484e-05 -4.95833883e-05 -3.00780957e-05 6.04871184e-06
      2.4459564e-06 9.81062294e-06 -1.70354633e-05 1.98729849e-05
      -1.70078238e-05 0. 0. 0. 0. -1.41773307e-05 -1.78278842e-05
      -1.78278842e-05 -1.78278842e-05 3.41785417e-05 -2.12848608e-05
      1.91105264e-05 -4.57395945e-05 -7.72117346e-05 -5.86328497e-05
      -1.41503688e-05 -8.04029187e-05 -7.5666765e-05 -6.38126439e-05
      -1.46222801e-05 -9.57443335e-05 -9.20937819e-05 -9.20937819e-05
      -7.41569238e-05 -5.99795931e-05 -3.00780957e-05 -3.65055303e-06
      6.04871184e-06 2.4459564e-06 9.81062294e-06 -1.70354633e-05
      1.98729849e-05 -1.70078238e-05 0. 0. 0. 0. 0. 0. -3.65055303e-06
      -1.78278842e-05 1.46732509e-05 2.30795395e-05 6.34749231e-05
      1.26715622e-05 -1.88005797e-05 -7.64890046e-07 4.02207152e-05
      -4.04718121e-05 -3.51924646e-05 -3.73850962e-05 -1.46222801e-05
      -9.57443335e-05 -5.85417329e-05 -4.06048748e-05 -3.36826233e-05
      -1.95052926e-05 -3.65055303e-06 -3.65055303e-06 6.04871184e-06
      2.4459564e-06 9.81062294e-06 -1.70354633e-05 1.98729849e-05
      -1.70078238e-05 0. 0. 0. 0. 0. 0. 0. 0. 1.38921378e-05
      4.09074237e-05 4.9578146e-05 4.59123548e-05 -2.77698073e-05
      7.66256926e-05 -9.18447256e-07 -4.04718121e-05 -3.51924646e-05
      -1.944824e-05 2.97421211e-05 -4.41248521e-05 -4.06048748e-05
      -4.06048748e-05 -3.36826233e-05 -1.95052926e-05 -3.65055303e-06
      -3.65055303e-06 6.04871184e-06 2.4459564e-06 9.81062294e-06
      -1.70354633e-05 1.98729849e-05 -1.70078238e-05 0. 0. 0. 0. 0. 0.
      0. -1.95052926e-05 1.38921378e-05 2.22984272e-05 3.46197012e-05
      3.56661258e-05 9.7171469e-06 1.87962286e-07 -4.87772522e-05
      -4.45412807e-05 -2.72782745e-06 2.28214267e-05 4.92474137e-05
      -4.41248521e-05 -4.06048748e-05 -4.06048748e-05 -3.36826233e-05
      -3.36826233e-05 -1.78278842e-05 -3.65055303e-06 6.04871184e-06
      -1.20459663e-06 9.81062294e-06 -1.70354633e-05 1.98729849e-05
      -1.70078238e-05 0. 0. 0. 0. 0. 0. 0. -1.95052926e-05
      1.38921378e-05 2.22984272e-05 3.46197012e-05 2.26869702e-06
      1.33677004e-05 -1.67814578e-05 -1.48132995e-06 -3.45999215e-05
      3.23448003e-05 4.92474137e-05 9.93881167e-06 -4.41248521e-05
      -2.64275441e-05 -6.01101674e-05 -3.36826233e-05 -1.95052926e-05 0.
      -3.65055303e-06 6.04871184e-06 -1.20459663e-06 9.81062294e-06
      -1.70354633e-05 1.98729849e-05 2.49746813e-06 0. 0. 0. 0. 0. 0.
      -1.95052926e-05 -1.95052926e-05 -1.95052926e-05 1.38921378e-05
      3.46197012e-05 1.22227118e-06 1.33677004e-05 -1.67814578e-05
      1.64555277e-05 1.64555277e-05 4.40916483e-05 4.40916483e-05
      1.35893652e-05 -4.04743005e-05 -2.64275441e-05 -4.59328367e-05
      -4.59328367e-05 -1.41773307e-05 0. 0. 6.04871184e-06
      -1.20459663e-06 9.81062294e-06 -1.70354633e-05 1.98729849e-05
      2.49746813e-06 0. 0. 0. 0. 0. -1.95052926e-05 -1.95052926e-05
      -1.95052926e-05 -1.95052926e-05 -1.95052926e-05 -7.18401725e-06
      -7.18401725e-06 1.23212749e-05 -1.78278842e-05 1.64555277e-05
      1.64555277e-05 4.40916483e-05 4.40916483e-05 0. 0. 0. 0. 0. 0. 0.
      0. 9.69926532e-06 2.4459564e-06 9.81062294e-06 -1.70354633e-05
      3.93782757e-05 2.49746813e-06 0. 0. 0. 0. -1.95052926e-05
      -1.95052926e-05 -1.95052926e-05 -1.95052926e-05 -1.95052926e-05
      -1.95052926e-05 -2.41534381e-05 1.23212749e-05 -4.64814548e-06
      -1.78278842e-05 -3.65055303e-06 1.64555277e-05 1.64555277e-05
      -3.65055303e-06 0. 0. 0. 0. 0. 0. 0. 0. 9.69926532e-06
      2.4459564e-06 9.81062294e-06</_>
    <_>
      9.10559265e-06 2.15067976e-05 1.70061667e-05 0. 0. 0. 0.
      1.83015072e-05 1.83015072e-05 1.83015072e-05 1.83015072e-05
      4.19693824e-05 4.19693824e-05 4.19693824e-05 4.19693824e-05
      4.19693824e-05 4.19693824e-05 4.19693824e-05 4.19693824e-05
      4.19693824e-05 4.19693824e-05 2.3667877e-05 2.3667877e-05
      -1.61545559e-05 -1.61545559e-05 2.3667877e-05 0. 0. 0.
      2.92477962e-05 -3.96078985e-06 1.77278562e-05 9.10559265e-06
      2.15067976e-05 1.70061667e-05 0. 0. 0. 0. -1.5280908e-05
      -1.5280908e-05 -1.5280908e-05 -3.17087984e-06 2.04969965e-05
      2.04969965e-05 2.04969965e-05 -3.17087984e-06 -1.5280908e-05
      1.83015072e-05 1.83015072e-05 1.83015072e-05 1.83015072e-05
      4.19693824e-05 3.88754279e-06 3.88754279e-06 3.88754279e-06
      -1.61545559e-05 -1.61545559e-05 0. 0. 0. 4.75493034e-05
      1.43407178e-05 1.77278562e-05 9.10559265e-06 2.15067976e-05
      1.70061667e-05 0. 0. 0. -3.35824152e-05 -1.5280908e-05
      -3.17087984e-06 -3.17087984e-06 -3.17087984e-06 2.04969965e-05
      2.04969965e-05 -5.73450416e-05 -1.68525621e-05 1.448945e-06
      1.448945e-06 9.38101584e-06 9.38101584e-06 4.2963431e-05
      2.47095227e-06 3.88754279e-06 3.88754279e-06 3.88754279e-06
      3.88754279e-06 3.88754279e-06 -3.98224329e-05 0. 1.83015072e-05
      4.75493034e-05 1.43407178e-05 1.77278562e-05 3.27734706e-05
      2.15067976e-05 1.70061667e-05 0. 0. 0. 0. -3.17087984e-06
      -3.17087984e-06 -3.17087984e-06 -3.17087984e-06 -2.14723877e-05
      -1.68525621e-05 -1.68525621e-05 -1.68525621e-05 -1.68525621e-05
      2.14910433e-05 2.14910433e-05 2.14910433e-05 4.2963431e-05
      4.2963431e-05 3.9013652e-05 3.88754279e-06 3.88754279e-06
      3.88754279e-06 3.88754279e-06 3.88754279e-06 0. 1.83015072e-05
      4.75493034e-05 1.43407178e-05 1.77278562e-05 3.27734706e-05
      2.15067976e-05 1.70061667e-05 0. 0. 0. 0. 3.04115365e-05
      -6.61800095e-06 -6.61800095e-06 -2.49195091e-05 1.55729704e-05
      -2.02996835e-05 -2.02996835e-05 -2.02996835e-05 -2.02996835e-05
      1.8043922e-05 1.8043922e-05 1.8043922e-05 5.50734585e-05
      4.2963431e-05 3.14099884e-06 4.43800236e-05 3.88754279e-06
      3.88754279e-06 3.88754279e-06 3.88754279e-06 0. 1.83015072e-05
      4.75493034e-05 1.43407178e-05 1.77278562e-05 3.27734706e-05
      2.15067976e-05 1.70061667e-05 0. 0. 0. 0. 1.83015072e-05
      2.69644152e-05 8.66290702e-06 8.66290702e-06 4.91553874e-05
      1.32827317e-05 1.2200022e-05 -2.13823932e-05 -1.34029517e-06
      1.69612122e-05 4.43817989e-05 4.43817989e-05 4.91450483e-05
      1.52510274e-05 4.2963431e-05 4.8329799e-05 4.3709977e-05
      4.3709977e-05 3.88754279e-06 3.88754279e-06 -3.98224329e-05
      1.83015072e-05 4.75493034e-05 1.43407178e-05 1.77278562e-05
      3.27734706e-05 2.15067976e-05 1.70061667e-05 0. 0. 0. 0.
      1.58202183e-05 6.18161766e-06 6.18161766e-06 6.18161766e-06
      2.84745765e-05 -4.65368685e-05 5.41467962e-05 2.0564381e-05
      1.14000606e-07 1.14000606e-07 -1.74571469e-05 1.61252701e-05
      -1.7090475e-05 2.20034253e-05 2.48306969e-05 4.8329799e-05
      4.3709977e-05 4.3709977e-05 3.88754279e-06 3.88754279e-06 0.
      1.83015072e-05 4.75493034e-05 1.43407178e-05 1.77278562e-05
      3.27734706e-05 2.15067976e-05 1.70061667e-05 0. 0. 0.
      -2.48128958e-06 -2.48128958e-06 9.62873855e-06 4.91790815e-05
      8.85900808e-05 2.84462999e-06 4.55508143e-07 4.55508143e-07
      -7.36193833e-05 -6.49564827e-05 -9.28056979e-05 -4.09217755e-05
      -4.09217755e-05 -7.33473062e-05 -4.20746619e-05 -8.91953314e-05
      -3.77608922e-05 1.9391442e-05 4.3709977e-05 3.88754279e-06
      3.88754279e-06 0. 1.83015072e-05 4.75493034e-05 -2.1531936e-05
      -1.81447977e-05 4.4883498e-05 3.36168268e-05 1.70061667e-05 0. 0.
      0. -2.48128958e-06 2.53679282e-05 3.9458173e-05 5.47175659e-05
      8.64079557e-05 -1.47585852e-05 -1.47585852e-05 -8.88334835e-05
      -4.03174818e-05 -4.03174818e-05 -8.50736797e-06 -3.74411638e-06
      6.72951501e-07 -3.5107536e-05 -0.000100170357 -1.91009967e-05
      -3.46139459e-05 1.9391442e-05 -2.11010374e-05 3.88754279e-06
      3.88754279e-06 2.00420982e-05 1.83015072e-05 4.75493034e-05
      -2.1531936e-05 -5.79672305e-05 4.4883498e-05 3.36168268e-05
      3.70482667e-05 2.00420982e-05 2.00420982e-05 2.00420982e-05
      2.78492171e-05 2.77570507e-05 3.1391588e-05 4.26075349e-05
      8.64079557e-05 7.4958647e-05 3.2156393e-05 -3.96365394e-05
      -8.62140369e-05 -4.6391604e-05 -2.77162671e-05 -3.60493823e-06
      2.52142254e-05 -3.27184134e-05 6.16763873e-06 1.98044308e-05
      -3.46139459e-05 -6.50656375e-07 -2.11010374e-05 3.88754279e-06
      3.88754279e-06 2.00420982e-05 1.83015072e-05 1.16766505e-05
      -2.1531936e-05 -5.79672305e-05 2.90529406e-05 1.77862712e-05
      1.32856394e-05 -1.58305556e-05 2.00420982e-05 2.00420982e-05
      4.78913171e-05 3.02383396e-05 6.26920373e-05 6.46014014e-05
      0.000101758465 5.6474928e-05 -3.71552487e-05 -4.29444808e-05
      -8.62140369e-05 -8.62140369e-05 -6.44456304e-05 -3.71873539e-05
      -3.69963018e-05 -1.41919043e-06 9.31458362e-06 3.74076481e-05
      6.81290112e-05 1.25870736e-06 4.3709977e-05 3.88754279e-06
      3.88754279e-06 2.00420982e-05 1.83015072e-05 1.16766505e-05
      -2.1531936e-05 -5.79672305e-05 2.90529406e-05 1.77862712e-05
      1.32856394e-05 -1.58305556e-05 2.00420982e-05 2.00420982e-05
      5.02804396e-05 4.19394637e-05 7.07586296e-05 7.26679937e-05
      8.64793474e-05 2.30872247e-05 1.97792815e-05 1.38508713e-05
      -2.59715616e-05 -3.1330932e-05 3.65384864e-07 1.84038236e-05
      2.74408794e-05 3.62449791e-05 4.98070622e-05 6.10755233e-05
      6.81290112e-05 4.56193375e-05 4.3709977e-05 3.88754279e-06
      3.88754279e-06 2.00420982e-05 1.83015072e-05 1.16766505e-05
      -2.1531936e-05 -2.58151031e-05 2.90529406e-05 1.77862712e-05
      -2.65367944e-05 -1.58305556e-05 2.00420982e-05 4.78913171e-05
      5.02804396e-05 4.19394637e-05 7.07586296e-05 4.48187748e-05
      5.52710626e-05 2.16886456e-05 1.38508713e-05 -1.93577162e-05
      -0.000112541849 -0.000123755381 -4.94570231e-05 -3.49578731e-05
      -6.19126658e-05 -1.02066551e-05 6.97993964e-05 9.69481771e-05
      6.81290112e-05 4.56193375e-05 3.88754279e-06 3.88754279e-06
      4.3709977e-05 0. 1.83015072e-05 1.16766505e-05 -9.42190854e-06
      -2.58151031e-05 2.90529406e-05 1.77862712e-05 -2.65367944e-05
      -3.72052727e-06 2.00420982e-05 4.78913171e-05 5.02804396e-05
      3.02383396e-05 1.40902457e-05 0. 5.33616985e-05 4.74332883e-05
      -1.93577162e-05 -7.58663591e-05 -0.000115688788 -0.000105453873
      -5.29041463e-05 -4.54584842e-05 -1.02066551e-05 7.3965607e-06
      4.15833529e-05 3.4546596e-05 0.000112489644 5.79690686e-06
      3.88754279e-06 3.88754279e-06 2.00420982e-05 0. 1.83015072e-05
      1.16766505e-05 -9.42190854e-06 -2.58151031e-05 6.49255962e-05
      -2.20361617e-05 -2.65367944e-05 -3.72052727e-06 2.00420982e-05
      2.00420982e-05 4.78913171e-05 2.38912185e-06 0. 0. 5.33616985e-05
      4.74332883e-05 1.42247009e-05 -4.22839439e-05 -9.01729582e-05
      -0.00012286604 -2.6375219e-05 -6.49859576e-05 -3.24060929e-05
      -2.56510284e-05 3.37887723e-05 5.95351776e-05 7.12686306e-05
      3.88754279e-06 3.88754279e-06 4.3709977e-05 0. 0. 1.83015072e-05
      1.16766505e-05 -2.1531936e-05 -2.58151031e-05 2.90529406e-05
      -2.20361617e-05 -2.65367944e-05 3.21521256e-05 2.00420982e-05
      2.00420982e-05 2.00420982e-05 0. 0. 0. 5.08804078e-05
      4.74332883e-05 -7.50096515e-05 -0.000126045619 -0.000125347331
      -0.000125347331 -8.19663983e-05 -1.8908182e-05 4.48426681e-06
      1.21408739e-05 3.37887723e-05 3.593785e-05 3.76862154e-05
      3.88754279e-06 3.88754279e-06 4.3709977e-05 0. 0. 1.83015072e-05
      1.16766505e-05 -9.42190854e-06 -2.58151031e-05 2.90529406e-05
      -2.20361617e-05 -2.65367944e-05 3.21521256e-05 2.00420982e-05
      2.00420982e-05 2.00420982e-05 0. 0. 0. -2.48128958e-06
      -2.48128958e-06 -4.98676527e-05 -0.000107293301 -8.89917937e-05
      -8.54332975e-05 9.380763e-06 -2.19184603e-05 1.76042668e-05
      -1.90116789e-05 3.9104576e-05 3.593785e-05 3.26299087e-05
      3.88754279e-06 3.88754279e-06 -3.98224329e-05 0. 0. 1.83015072e-05
      1.16766505e-05 1.06201906e-05 -2.58151031e-05 2.90529406e-05
      -2.20361617e-05 -2.65367944e-05 3.21521256e-05 2.00420982e-05
      2.00420982e-05 2.00420982e-05 0. 0. 0. 0. -3.83539445e-05
      -4.64205295e-05 -8.55446706e-05 -2.88762894e-05 -3.9104576e-05
      1.28278843e-05 1.26887062e-05 -2.56711683e-05 -1.56552869e-05
      -3.37730235e-05 -3.02717399e-05 -8.55428007e-05 3.88754279e-06
      3.88754279e-06 -3.98224329e-05 0. 0. -1.75711466e-05
      1.16766505e-05 -1.48983759e-06 -2.58151031e-05 2.90529406e-05
      -2.20361617e-05 -2.65367944e-05 3.21521256e-05 2.00420982e-05
      2.00420982e-05 2.00420982e-05 0. 0. 0. 0. -3.58726538e-05
      -2.56377334e-05 -5.42442176e-05 2.5798603e-05 -2.45132578e-05
      1.61358275e-05 1.09845396e-05 3.04726723e-06 -5.30008219e-05
      -9.11287643e-05 -0.000147868312 -8.55428007e-05 -6.40704166e-05
      -3.98224329e-05 -3.98224329e-05 -3.98224329e-05 0. -1.75711466e-05
      1.16766505e-05 -2.1531936e-05 -2.58151031e-05 2.90529406e-05
      -2.20361617e-05 9.33586125e-06 3.21521256e-05 3.21521256e-05
      2.00420982e-05 2.00420982e-05 0. -3.35824152e-05 0. 0. 0.
      4.71206731e-05 8.16635948e-05 7.61704068e-05 0.000119300785
      4.22849953e-05 -4.68673097e-05 -1.63451132e-05 -5.30008219e-05
      -9.30381284e-05 -0.000143918529 -7.54336143e-05 -4.11431356e-05
      -0.000104633444 -3.98224329e-05 -3.98224329e-05 0. -1.75711466e-05
      1.16766505e-05 -2.1531936e-05 -2.58151031e-05 -1.07694914e-05
      -2.20361617e-05 9.33586125e-06 3.21521256e-05 3.21521256e-05
      2.00420982e-05 2.00420982e-05 -3.35824152e-05 -3.35824152e-05
      -3.67293615e-05 0. 4.71206731e-05 0.000129552616 0.000101840211
      0.000105148152 0.000168638464 0.000111970083 7.66169906e-05
      3.28605274e-05 8.50224751e-06 -8.15888125e-05 -0.00014639982
      -0.000103542297 -9.83934297e-05 -6.48110145e-05 -3.98224329e-05
      -3.98224329e-05 0. -1.75711466e-05 1.16766505e-05 -2.1531936e-05
      -2.58151031e-05 -2.28795197e-05 -2.20361617e-05 9.33586125e-06
      3.21521256e-05 3.21521256e-05 2.00420982e-05 -3.32085874e-05
      -6.6790999e-05 -6.99379452e-05 -3.67293615e-05 1.03913117e-05
      8.90601368e-05 0.000141662647 0.000105148152 0.000128816027
      0.000111970083 0.000112489644 7.66169906e-05 3.76191711e-05
      -6.08386508e-05 -8.15888125e-05 -7.78682806e-05 -0.00012721018
      -8.24142262e-05 -6.48110145e-05 -3.98224329e-05 -3.98224329e-05 0.
      -1.75711466e-05 1.16766505e-05 -2.1531936e-05 -2.58151031e-05
      1.2993135e-05 1.72646435e-06 4.91582941e-05 3.21521256e-05
      3.21521256e-05 2.00420982e-05 -3.32085874e-05 -6.92722897e-05
      -7.24192359e-05 -7.91019647e-06 4.06296494e-05 9.59702011e-05
      0.000144970589 0.000128816027 9.99968688e-05 0.000130791159
      0.000112489644 4.01004618e-05 4.03675494e-06 -6.39855934e-05
      -9.61377227e-05 -0.000101536163 -0.00012721018 -8.24142262e-05
      -6.48110145e-05 -3.98224329e-05 -3.98224329e-05 0. 0.
      1.16766505e-05 -2.1531936e-05 -2.58151031e-05 -2.28795197e-05
      1.72646435e-06 3.70482667e-05 3.21521256e-05 3.21521256e-05
      2.00420982e-05 -3.32085874e-05 -3.91369977e-05 -7.58663591e-05
      7.42106431e-06 9.28232548e-05 0.000106842643 0.000111388174
      6.64144463e-05 9.78787866e-05 0.000119399709 8.28831762e-05
      4.70105224e-05 -1.19794086e-05 -5.56452433e-05 -9.61377227e-05
      -6.83275721e-05 -0.00012721018 -8.24142262e-05 -6.48110145e-05
      -3.98224329e-05 -3.98224329e-05 0. 0. 4.75493034e-05
      -3.9833445e-05 1.77278562e-05 -2.28795197e-05 1.72646435e-06
      3.70482667e-05 2.00420982e-05 2.00420982e-05 2.00420982e-05
      -3.66557069e-05 -3.91369977e-05 1.9920506e-05 5.36862572e-05
      5.90427408e-05 7.50326362e-05 6.98813528e-05 5.3182277e-05
      7.64303331e-05 7.97362372e-05 7.72549465e-05 -1.19794086e-05
      -2.75365583e-05 -5.56452433e-05 -7.93131185e-05 -2.78350944e-05
      -4.99883354e-05 -4.19217467e-05 -6.48110145e-05 -3.98224329e-05
      -3.98224329e-05 0. 0. 2.92477962e-05 -3.96078985e-06
      1.77278562e-05 -2.28795197e-05 1.72646435e-06 3.70482667e-05
      2.00420982e-05 2.00420982e-05 2.00420982e-05 -3.44712112e-06
      2.00126742e-05 4.18565505e-05 6.96654606e-05 4.28381063e-05
      7.74033742e-06 0.000119342585 8.78611245e-05 6.76502532e-05
      0.00010747269 5.41109912e-05 2.68118606e-06 -1.87594924e-05
      -5.04939562e-05 -1.72853688e-05 1.00594261e-05 -4.99883354e-05
      -4.19217467e-05 -6.41409642e-05 -3.98224329e-05 0. 0. 0.
      2.92477962e-05 -3.96078985e-06 1.77278562e-05 1.2993135e-05
      1.72646435e-06 3.70482667e-05 2.00420982e-05 2.00420982e-05 0.
      3.12082848e-05 1.4335209e-05 4.43378412e-05 2.75612783e-05
      1.13093329e-05 7.02105972e-05 7.64128636e-05 6.76502532e-05
      6.76502532e-05 5.41109912e-05 2.68118606e-06 -1.73609133e-05
      -4.90953753e-05 -1.58867897e-05 3.84463565e-05 -1.97705922e-05
      8.33809463e-06 -2.04810694e-05 -1.97803329e-05 -1.97803329e-05 0.
      0. 0. 2.92477962e-05 -3.96078985e-06 1.77278562e-05 1.2993135e-05
      4.15488976e-05 3.70482667e-05 2.00420982e-05 2.00420982e-05
      2.38912185e-06 5.90575037e-05 6.26920373e-05 7.94557927e-05
      6.18525737e-05 2.66598418e-05 3.21072403e-05 5.21493384e-05
      1.16286128e-05 5.14510466e-05 0.000116262054 0.000110451045
      9.02744287e-05 6.97534997e-05 5.46315714e-05 2.56932144e-05
      2.67512132e-05 -3.02450208e-05 -6.09735507e-05 -1.83817538e-05
      -1.97803329e-05 0. 0. 0. 2.92477962e-05 -3.96078985e-06
      1.77278562e-05 2.91476917e-05 4.15488976e-05 3.70482667e-05
      2.00420982e-05 0. 3.02383396e-05 4.19394637e-05 5.40837464e-05
      1.47639721e-05 0.000103998325 8.63951063e-05 5.73620018e-05
      5.91025928e-05 2.0678739e-05 2.46285181e-05 5.34476821e-05
      7.10508975e-05 7.10508975e-05 2.97798051e-05 5.35424333e-05
      4.74418448e-05 3.72069226e-05 -5.70248767e-06 5.7468269e-06
      -1.83817538e-05 -1.97803329e-05 0. 0. 0. 2.92477962e-05
      -3.96078985e-06 1.77278562e-05 2.91476917e-05 4.15488976e-05
      1.70061667e-05 0. 0. 2.78492171e-05 4.19394637e-05 2.62776812e-05
      1.47639721e-05 6.81256715e-05 9.17935467e-05 8.63003588e-05
      2.3229939e-05 -1.65924939e-05 2.3229939e-05 2.3229939e-05
      4.15314462e-05 1.78635692e-05 -2.19588619e-05 1.39137919e-05
      6.66485139e-05 3.8799295e-05 -2.19655776e-05 2.14406791e-05
      2.14406791e-05 2.3667877e-05 2.3667877e-05 0. 0. 2.92477962e-05
      -3.96078985e-06 1.77278562e-05 9.10559265e-06 2.15067976e-05
      1.70061667e-05 0. 0. 0. 0. -5.87002296e-06 -3.96065934e-06
      -1.20272462e-05 6.50023285e-05 7.95512387e-05 -6.03700973e-05
      4.44091347e-06 2.27424207e-05 5.05916396e-05 3.88905137e-05
      3.69811496e-05 3.64784937e-05 3.88676162e-05 4.45450823e-05
      4.45450823e-05 1.59975716e-05 1.59975716e-05 3.57779063e-05
      2.3667877e-05 2.3667877e-05 0. 0. 2.92477962e-05 -3.96078985e-06
      1.77278562e-05 9.10559265e-06 2.15067976e-05 1.70061667e-05 0. 0.
      0. 1.83015072e-05 -1.75711466e-05 -1.75711466e-05 -1.75711466e-05
      6.09672998e-06 2.61388286e-05 3.82488579e-05 3.82488579e-05
      3.82488579e-05 3.82488579e-05 3.82488579e-05 7.41215117e-05
      3.42990788e-05 3.42990788e-05 3.42990788e-05 1.42569797e-05
      -4.04452794e-06 -4.04452794e-06 3.57779063e-05 3.57779063e-05
      3.57779063e-05 0. 0. 2.92477962e-05 -3.96078985e-06 1.77278562e-05</_>
    <_>
      8.13581755e-06 3.01775653e-05 -9.52663072e-07 0. 0. 0. 0.
      1.99056994e-05 1.99056994e-05 1.99056994e-05 1.99056994e-05
      3.18706261e-05 3.18706261e-05 3.18706261e-05 3.18706261e-05
      3.18706261e-05 3.18706261e-05 3.18706261e-05 3.18706261e-05
      3.18706261e-05 1.82359527e-05 -1.66974633e-06 -9.80615823e-07
      -9.80615823e-07 -9.80615823e-07 1.19649276e-05 0. -1.82664389e-05
      -1.82664389e-05 -1.89948005e-05 -1.33231315e-05 -1.49040704e-06
      8.13581755e-06 3.01775653e-05 -9.52663072e-07 0. 0. 0. 0.
      1.99056994e-05 1.99056994e-05 1.99056994e-05 2.09839527e-05
      3.29488794e-05 3.29488794e-05 3.29488794e-05 2.09839527e-05
      1.99056994e-05 1.99056994e-05 1.99056994e-05 2.05948309e-05
      6.96015604e-06 1.89250841e-05 8.15405201e-06 8.15405201e-06
      8.15405201e-06 -1.28527836e-05 7.81890321e-07 6.89130445e-07
      -1.82664389e-05 -1.82664389e-05 9.10898734e-07 6.5825684e-06
      -1.49040704e-06 8.13581755e-06 3.01775653e-05 -9.52663072e-07 0.
      0. 0. 0. 1.99056994e-05 2.09839527e-05 2.09839527e-05
      2.09839527e-05 3.29488794e-05 3.29488794e-05 1.07825258e-06
      -6.45752209e-07 1.0637742e-05 3.99421951e-05 6.05599089e-05
      6.05599089e-05 5.55474398e-05 2.7966993e-05 8.15405201e-06
      8.15405201e-06 8.15405201e-06 8.15405201e-06 2.17887264e-05
      -1.75773093e-05 -1.75773093e-05 1.63926029e-06 1.91773379e-05
      6.5825684e-06 -1.49040704e-06 2.01007442e-05 3.01775653e-05
      -9.52663072e-07 0. 0. 0. 0. 2.09839527e-05 2.09839527e-05
      2.09839527e-05 2.09839527e-05 1.07825258e-06 2.86587001e-05
      -6.45752209e-07 -6.45752209e-07 -9.26795838e-06 3.23337081e-05
      6.16381585e-05 4.80034869e-05 5.55474398e-05 4.36752707e-05
      4.36752707e-05 8.15405201e-06 8.15405201e-06 8.15405201e-06
      3.36608937e-05 1.53944547e-05 -1.75773093e-05 1.63926029e-06
      1.91773379e-05 6.5825684e-06 -1.49040704e-06 2.01007442e-05
      3.01775653e-05 -9.52663072e-07 0. 0. 0. 0. 2.09839527e-05
      2.09839527e-05 2.09839527e-05 1.07825258e-06 2.86587001e-05
      2.0002386e-05 -9.30206534e-06 -1.79242707e-05 -2.89267009e-05
      2.06421464e-05 4.14239876e-05 2.77893141e-05 2.77893141e-05
      4.36752707e-05 4.36752707e-05 3.57344979e-05 8.15405201e-06
      8.15405201e-06 3.36608937e-05 1.53944547e-05 -1.75773093e-05
      2.32839079e-06 1.91773379e-05 6.5825684e-06 -1.49040704e-06
      2.01007442e-05 3.01775653e-05 -9.52663072e-07 0. 0. 0. 0.
      1.99056994e-05 2.09839527e-05 1.07825258e-06 1.07825258e-06
      2.86587001e-05 -9.30206534e-06 -3.58140323e-06 -2.38951707e-05
      -2.19920366e-06 2.63628099e-05 4.49737709e-05 4.30306573e-05
      2.77893141e-05 4.4753524e-05 4.36752707e-05 3.57344979e-05
      8.15405201e-06 8.15405201e-06 3.52228676e-06 1.53944547e-05
      -1.75773093e-05 2.32839079e-06 1.91773379e-05 6.5825684e-06
      -1.49040704e-06 2.01007442e-05 3.01775653e-05 -9.52663072e-07 0.
      0. 0. 0. 1.99056994e-05 1.07825258e-06 1.07825258e-06
      1.07825258e-06 2.57230477e-05 1.16599404e-05 1.16599404e-05
      -8.65382663e-06 -1.45383074e-05 -5.88199418e-06 9.47931221e-06
      1.26694113e-05 -2.0898724e-05 3.82989019e-05 2.19793037e-05
      3.50453702e-05 8.15405201e-06 2.17887264e-05 1.53944547e-05
      1.53944547e-05 -1.75773093e-05 2.32839079e-06 1.91773379e-05
      6.5825684e-06 -1.49040704e-06 2.01007442e-05 3.01775653e-05
      -9.57486918e-06 -8.62220531e-06 0. 0. 0. 0. 1.07825258e-06
      6.32079036e-06 5.48632415e-05 3.04184177e-05 1.58242256e-05
      -4.48954188e-06 -3.20699874e-05 -3.03026063e-05 -4.71029998e-05
      -1.59171504e-05 -1.27270514e-05 -3.34934921e-05 2.29233301e-05
      8.87251917e-06 1.40385328e-05 3.50453702e-05 2.17887264e-05
      1.53944547e-05 1.53944547e-05 -1.75773093e-05 2.32839079e-06
      1.91773379e-05 6.5825684e-06 -1.49040704e-06 2.11789975e-05
      2.26336124e-05 -9.57486918e-06 -8.62220531e-06 0. 0. 0.
      5.24253801e-06 1.98367306e-05 3.61563252e-05 3.907473e-05
      3.04184177e-05 3.04184177e-05 -1.74757952e-05 4.56651242e-06
      -1.56476581e-05 2.37809832e-06 1.64412068e-05 1.77579441e-05
      -9.43101986e-06 -2.85995739e-05 1.15190924e-05 1.40385328e-05
      3.50453702e-05 3.52228676e-06 1.53944547e-05 1.53944547e-05
      3.42952694e-06 1.63926029e-06 1.91773379e-05 6.5825684e-06
      -1.49040704e-06 2.11789975e-05 1.39772992e-05 2.77565437e-06
      1.23846303e-05 9.13466829e-06 2.10068356e-05 5.24253801e-06
      1.98367306e-05 1.98367306e-05 5.77362243e-06 3.04184177e-05
      5.81813874e-05 4.64898258e-05 -4.95416862e-06 -1.06748312e-05
      -3.08890012e-05 -1.96621586e-05 2.21908249e-06 4.68504913e-06
      1.4348866e-06 -8.36604329e-07 3.55537741e-05 1.40385328e-05
      1.40385328e-05 3.52228676e-06 1.53944547e-05 1.53944547e-05
      3.42952694e-06 1.63926029e-06 1.91773379e-05 6.5825684e-06
      -1.49040704e-06 4.21858349e-05 3.49841357e-05 3.85390695e-06
      -1.24330809e-05 -1.24330809e-05 9.13466829e-06 2.62493741e-05
      1.98367306e-05 3.50780756e-05 5.77362243e-06 3.06009424e-05
      1.89093807e-05 -4.95416862e-06 -1.06748312e-05 -3.08890012e-05
      -4.8224174e-05 -2.81636221e-05 -9.65308573e-06 -1.42845811e-05
      1.50695605e-05 -8.36604329e-07 3.55537741e-05 4.86004174e-05
      1.47276633e-05 3.52228676e-06 1.53944547e-05 1.53944547e-05
      -5.1926786e-06 -6.98294571e-06 1.91773379e-05 6.5825684e-06
      -9.42348197e-06 4.21858349e-05 3.49841357e-05 4.54303745e-06
      -1.24330809e-05 -1.24330809e-05 -3.81087557e-06 4.08435662e-05
      1.98367306e-05 3.50780756e-05 5.77362243e-06 7.94618063e-06
      -1.6168693e-05 -3.05115609e-05 -5.07257319e-05 -5.44262293e-05
      -6.28183625e-05 -2.81636221e-05 -2.59761418e-05 -6.49906724e-07
      1.45914364e-05 2.67438427e-05 4.75187044e-05 3.60056474e-05
      -1.87687001e-05 -5.1340262e-06 1.53944547e-05 6.77224898e-06
      -5.1926786e-06 -6.98294571e-06 1.91773379e-05 6.5825684e-06
      4.00529325e-06 4.21858349e-05 3.56732671e-05 -7.32913077e-06
      -1.24330809e-05 -1.24330809e-05 1.43166221e-06 4.15326977e-05
      1.98367306e-05 5.77362243e-06 -1.98167891e-05 -2.18893565e-05
      -3.05115609e-05 -1.20711013e-06 -5.44262293e-05 -8.41323126e-05
      -0.000104325336 -9.87160092e-05 -5.37391134e-05 -1.31715333e-05
      1.44089136e-05 5.32102022e-05 3.90172427e-05 2.80384647e-05
      -1.87687001e-05 -5.1340262e-06 1.53944547e-05 6.77224898e-06
      -2.61995156e-05 -6.98294571e-06 1.05551326e-05 7.66082121e-06
      3.31616297e-06 4.28749627e-05 3.56732671e-05 -2.55955692e-05
      -2.96212675e-05 -1.24330809e-05 1.43166221e-06 2.96605285e-05
      1.98367306e-05 -1.47102583e-05 -4.96523244e-05 -2.18893565e-05
      -3.05115609e-05 -2.51217771e-05 -4.11931869e-05 -9.26337743e-05
      -8.81479209e-05 -7.85018419e-05 -2.48630949e-05 2.71735189e-06
      1.44089136e-05 4.5269433e-05 2.37758977e-05 2.14648535e-05
      -1.87687001e-05 -5.1340262e-06 2.50045814e-05 -5.1926786e-06
      -2.68886452e-05 -6.98294571e-06 1.05551326e-05 7.66082121e-06
      4.00529325e-06 4.28749627e-05 1.74068264e-05 -3.92302427e-05
      -2.96212675e-05 -1.24330809e-05 -3.81087557e-06 1.43772058e-05
      -1.47102583e-05 -4.09960121e-05 -4.96523244e-05 -2.18893565e-05
      -2.51217771e-05 -2.51217771e-05 -4.11931869e-05 -0.000110900211
      -0.000110667126 -6.32604933e-05 -2.48630949e-05 2.71735189e-06
      1.83670691e-05 3.00280881e-05 2.44650291e-05 -2.52224754e-06
      -1.87687001e-05 1.31324132e-05 2.50045814e-05 -2.68886452e-05
      -2.68886452e-05 1.12834941e-05 1.05551326e-05 6.5825684e-06
      1.2627499e-05 4.28749627e-05 1.74068264e-05 -3.92302427e-05
      -2.96212675e-05 -1.24330809e-05 -3.81087557e-06 -2.0169784e-05
      -4.09960121e-05 -4.96523244e-05 -4.96523244e-05 -1.20711013e-06
      -2.51217771e-05 -3.25368746e-05 -6.33293239e-05 -9.86953673e-05
      -9.83444261e-05 -4.96258217e-05 1.12188145e-05 2.40384688e-05
      2.30210662e-05 3.07172195e-05 2.16197041e-05 -2.52224754e-06
      -1.87687001e-05 1.31324132e-05 2.50045814e-05 -2.68886452e-05
      -2.68886452e-05 1.12834941e-05 1.05551326e-05 7.66082121e-06
      2.12838113e-05 4.28749627e-05 1.74068264e-05 -3.92302427e-05
      -2.96212675e-05 -1.24330809e-05 -3.81087557e-06 -2.0169784e-05
      -4.96523244e-05 -4.96523244e-05 -5.33528219e-05 -5.28847486e-05
      -4.42284327e-05 -3.25368746e-05 -8.5324049e-05 -8.66528644e-05
      -7.78605463e-05 -6.37292896e-06 1.49471007e-05 4.07765729e-05
      3.22631649e-06 9.54941515e-06 3.35326513e-06 -2.52224754e-06
      -5.02260718e-07 1.24432827e-05 -8.65631318e-06 -2.68886452e-05
      -2.68886452e-05 -6.98294571e-06 1.05551326e-05 2.86676568e-05
      2.12838113e-05 2.46085256e-05 2.60290326e-05 -3.92302427e-05
      -2.96212675e-05 -1.24330809e-05 -3.31153278e-05 -3.18613456e-05
      -4.96523244e-05 -4.96523244e-05 -3.26705776e-05 -4.42284327e-05
      -3.25368746e-05 -5.8401296e-05 -6.93909096e-05 -6.61689846e-05
      -2.2051232e-05 5.85682028e-06 2.06677632e-05 3.88191293e-05
      3.74019291e-05 9.54941515e-06 -2.36739675e-06 -3.02852168e-05
      5.37643473e-07 1.24432827e-05 -2.6922753e-05 -2.68886452e-05
      -2.68886452e-05 -6.98294571e-06 -7.71130726e-06 2.75894035e-05
      7.64913784e-06 2.46085256e-05 2.60290326e-05 -3.92302427e-05
      -2.96212675e-05 -4.1737534e-05 -4.48068895e-05 -3.18613456e-05
      -4.96523244e-05 -5.33528219e-05 -8.21891954e-05 -6.18413251e-05
      -8.77057464e-05 -6.78000506e-05 -7.14115231e-05 -3.8588536e-05
      -8.74322996e-06 1.15774819e-05 1.32429641e-05 1.21294097e-05
      -1.94829681e-05 -1.44376863e-05 -3.01303662e-05 -3.02852168e-05
      -1.51486972e-07 -2.05284814e-05 -2.6922753e-05 -2.68886452e-05
      -2.68886452e-05 -6.98294571e-06 -7.71130726e-06 6.5825684e-06
      7.64913784e-06 2.46085256e-05 2.60290326e-05 -3.92302427e-05
      -2.96212675e-05 -5.23508425e-05 -4.48068895e-05 -4.05176579e-05
      -5.33528219e-05 -6.19750281e-05 -8.21891954e-05 -7.35328867e-05
      -9.93973081e-05 -7.6394499e-05 -3.56859055e-05 -2.09729787e-05
      -3.02256808e-06 3.61037091e-05 -1.19052729e-05 -9.03839373e-06
      -3.11745316e-05 -4.28389285e-05 -4.18219279e-05 -2.54777224e-05
      -2.11583229e-05 -2.05284814e-05 -2.6922753e-05 -2.68886452e-05
      -2.68886452e-05 -6.98294571e-06 -7.71130726e-06 6.5825684e-06
      2.12838113e-05 2.46085256e-05 2.60290326e-05 -3.92302427e-05
      -2.96212675e-05 -2.30463902e-05 -3.11722142e-05 -4.05176579e-05
      -5.33528219e-05 -8.21891954e-05 -7.35328867e-05 -9.93973081e-05
      -7.68450336e-05 -4.72437641e-05 -5.48218231e-05 -2.32367383e-05
      -1.05826803e-05 8.00042653e-06 -5.3101071e-06 -9.03839373e-06
      -5.51616322e-05 -7.06018982e-05 -6.27252302e-05 -6.66987326e-05
      -7.86636592e-05 -7.26437647e-05 -4.05574283e-05 -2.68886452e-05
      -3.87608125e-05 -6.98294571e-06 1.05551326e-05 6.5825684e-06
      2.12838113e-05 2.35302723e-05 2.60290326e-05 -3.92302427e-05
      -2.96212675e-05 -1.13548285e-05 -1.86776276e-06 -2.40483714e-05
      -2.40483714e-05 -5.66130329e-05 -6.51144946e-05 -4.38400893e-05
      -3.58755242e-05 -5.47877171e-05 -3.5466488e-05 -2.35015596e-05
      -3.14241443e-05 -3.01346263e-05 -3.01346263e-05 -4.94899614e-05
      -8.29245982e-05 -5.75592421e-05 -8.85386034e-05 -0.000109159846
      -0.000104358878 -7.26437647e-05 -5.24295938e-05 -3.87608125e-05
      -3.87608125e-05 -6.98294571e-06 1.05551326e-05 6.5825684e-06
      2.05946817e-05 2.35302723e-05 3.36070916e-05 -3.92302427e-05
      -2.96212675e-05 -1.50553251e-05 6.12330223e-06 -2.40483714e-05
      -2.40483714e-05 -3.6398862e-05 -4.32936577e-05 -1.61459957e-05
      -4.37716977e-07 -3.21194129e-05 -2.01544844e-05 -6.40111466e-05
      -6.26585243e-05 -6.4297783e-05 -3.20576801e-05 -3.20576801e-05
      -7.87762183e-05 -9.22391046e-05 -0.000104204031 -0.00011286034
      -0.000101168778 -8.09546109e-05 -7.35258291e-05 -5.98570441e-05
      -5.13555824e-05 -8.62220531e-06 1.05551326e-05 6.5825684e-06
      2.05946817e-05 2.35302723e-05 3.36070916e-05 -2.30299775e-05
      -1.13548285e-05 -6.43311932e-06 5.43417173e-06 -1.23568097e-05
      -1.23568097e-05 -2.47073021e-05 1.66417976e-05 1.12538446e-05
      1.2332097e-05 -2.13680508e-07 -2.80096538e-06 -3.17234185e-06
      -2.30780424e-05 -2.2223825e-05 7.08062589e-06 -5.11957733e-05
      -7.32808621e-05 -8.91697491e-05 -8.09205012e-05 -8.09546109e-05
      -8.09546109e-05 -7.72263229e-05 -7.35258291e-05 -5.98570441e-05
      -5.13555824e-05 -2.12169762e-05 1.05551326e-05 -1.33231315e-05
      -1.49040704e-06 2.35302723e-05 3.36070916e-05 -2.30299775e-05
      -3.81087557e-06 -7.51137213e-06 5.43417173e-06 -3.70049656e-06
      -1.23568097e-05 4.64384726e-07 4.79505325e-05 3.60783633e-05
      4.28772764e-05 9.42878341e-06 1.73550234e-05 -1.93497544e-05
      -2.50704161e-05 -1.84955388e-05 -1.76431877e-05 -6.09303388e-05
      -7.32808621e-05 -7.35542271e-05 -4.96117682e-05 -5.82680805e-05
      -4.96458779e-05 -7.35258291e-05 -7.35258291e-05 -5.12348379e-05
      -3.30891453e-05 -8.62220531e-06 -9.35056687e-06 -1.33231315e-05
      -1.49040704e-06 2.35302723e-05 3.36070916e-05 -2.30299775e-05
      -3.81087557e-06 -3.81087557e-06 9.13466829e-06 -3.70049656e-06
      1.67833841e-05 4.13490998e-05 6.03073422e-05 4.54995206e-05
      2.8311335e-05 4.88916339e-05 6.98984659e-05 2.0688316e-05
      2.0688316e-05 -4.20027118e-06 2.33367973e-05 -4.55995978e-05
      -4.89082122e-05 -4.20176184e-05 -3.06699294e-05 -5.38784552e-05
      -4.85367354e-06 -4.85367354e-06 -3.87949221e-05 -1.82664389e-05
      -8.62220531e-06 -8.62220531e-06 -9.35056687e-06 -1.33231315e-05
      -1.49040704e-06 2.35302723e-05 3.36070916e-05 -2.30299775e-05
      -3.81087557e-06 -4.50000607e-06 -1.18721682e-05 2.98355353e-05
      3.50780756e-05 4.13490998e-05 4.70697632e-05 6.27780391e-05
      6.61701488e-05 6.61701488e-05 4.99927701e-05 4.99927701e-05
      1.11917861e-05 2.77264244e-05 2.32996126e-06 -5.11547332e-05
      -4.2498421e-05 -3.9308321e-05 -1.16653673e-05 1.50131382e-05
      2.18738242e-05 -1.14272843e-05 -5.91591652e-06 -1.82664389e-05
      -8.62220531e-06 -8.62220531e-06 -9.35056687e-06 -1.33231315e-05
      -1.49040704e-06 2.35302723e-05 3.36070916e-05 -2.30299775e-05
      -4.50000607e-06 -4.50000607e-06 2.7220251e-06 3.50780756e-05
      3.50780756e-05 4.13490998e-05 4.13490998e-05 4.46941231e-05
      5.31838959e-05 7.41907352e-05 5.92633951e-05 5.92633951e-05
      8.07797987e-05 8.07797987e-05 6.43094827e-05 1.67151575e-05
      2.53714716e-05 3.49558431e-05 2.7790431e-05 -1.25673077e-05
      -5.70662223e-06 -5.70662223e-06 -5.91591652e-06 -2.6922753e-05
      -1.72785185e-05 -8.62220531e-06 -9.35056687e-06 -2.19453377e-05
      -1.49040704e-06 1.15653438e-05 3.36070916e-05 -2.37191089e-05
      -4.50000607e-06 -1.18721682e-05 1.98367306e-05 1.98367306e-05
      3.97424301e-05 3.97424301e-05 6.75054034e-05 3.8055925e-05
      6.2971274e-05 6.40724102e-05 6.11367577e-05 6.11367577e-05
      9.46445434e-05 8.60223372e-05 9.0978152e-05 5.36869884e-05
      6.43002932e-05 5.85898269e-05 4.2384625e-05 -4.56814249e-08
      2.94969072e-06 -2.39730616e-05 -5.91591652e-06 -1.82664389e-05 0.
      -8.62220531e-06 -9.35056687e-06 -2.19453377e-05 -1.49040704e-06
      1.08762142e-05 3.29179638e-05 -1.45873373e-05 -2.55068426e-05 0.
      5.24253801e-06 1.98367306e-05 3.97424301e-05 3.97424301e-05
      4.92389627e-05 6.18930208e-05 6.2971274e-05 6.40724102e-05
      5.54160943e-05 5.54160943e-05 7.36825314e-05 8.49660282e-05
      8.16574175e-05 6.43222447e-05 6.43222447e-05 6.18712365e-05
      5.6749439e-05 -4.47351886e-06 2.94969072e-06 -1.60058789e-05
      -1.88962822e-05 3.30861485e-06 0. 0. -9.35056687e-06
      -2.19453377e-05 -1.49040704e-06 -1.01306223e-05 1.19111264e-05
      -9.52663072e-07 0. 0. 0. 0. 1.99056994e-05 1.63926029e-06
      1.63926029e-06 4.20562901e-05 6.4141379e-05 1.6472708e-05
      7.81639483e-06 2.77220934e-05 5.12310726e-05 4.26088664e-05
      5.12651786e-05 3.76305034e-05 5.22246992e-05 2.57583361e-05
      3.36914127e-05 2.21778482e-05 2.21778482e-05 1.17101251e-06
      1.19649276e-05 1.19649276e-05 0. 0. -7.28361499e-07
      -1.33231315e-05 -1.49040704e-06 -1.01306223e-05 3.01775653e-05
      -9.52663072e-07 0. 0. 0. 1.99056994e-05 1.63926029e-06
      1.63926029e-06 1.63926029e-06 1.42933186e-05 3.5300156e-05
      3.63784056e-05 2.77220934e-05 4.59885341e-05 4.59885341e-05
      3.73663279e-05 4.60226402e-05 3.16988371e-05 3.16988371e-05
      1.9826668e-05 7.44203817e-06 1.17101251e-06 1.17101251e-06
      1.30431808e-05 1.30431808e-05 1.30431808e-05 0. 0. -7.28361499e-07
      -1.33231315e-05 -1.49040704e-06</_>
    <_>
      -4.97624978e-06 1.56336173e-05 6.69066503e-06 0. 0. 0. 0. 0. 0. 0.
      0. 0. 0. 0. 0. 0. 0. 0. 0. 0. -1.65109795e-05 -1.65109795e-05
      -1.65109795e-05 2.76884512e-05 2.76884512e-05 0. 0.
      -2.55934101e-05 -2.55934101e-05 -2.93298599e-05 -1.06677435e-05
      -1.5458425e-05 -4.97624978e-06 1.56336173e-05 6.69066503e-06 0. 0.
      0. 0. 3.48772664e-05 3.48772664e-05 3.48772664e-05 3.48772664e-05
      3.48772664e-05 3.48772664e-05 3.48772664e-05 3.48772664e-05
      3.48772664e-05 0. 0. 0. -1.65109795e-05 -1.65109795e-05
      2.76884512e-05 2.76884512e-05 2.76884512e-05 2.76884512e-05
      4.41994307e-05 0. -2.55934101e-05 -2.55934101e-05 -2.93298599e-05
      -1.06677435e-05 -1.5458425e-05 -4.97624978e-06 1.56336173e-05
      6.69066503e-06 0. 0. 0. 3.48772664e-05 3.48772664e-05
      3.63819454e-05 3.63819454e-05 3.63819454e-05 3.63819454e-05
      3.63819454e-05 5.83865149e-05 2.57352003e-05 1.83838056e-05
      5.10351165e-05 5.10351165e-05 5.10351165e-05 6.99826705e-06
      6.99826705e-06 2.76884512e-05 2.76884512e-05 2.76884512e-05
      2.76884512e-05 4.41994307e-05 1.86060224e-05 -2.55934101e-05
      -2.55934101e-05 -3.73645048e-06 -1.06677435e-05 -1.5458425e-05
      -4.97624978e-06 1.56336173e-05 6.69066503e-06 0. 0. 0. 0.
      3.63819454e-05 3.63819454e-05 3.63819454e-05 3.63819454e-05
      3.63819454e-05 5.83865149e-05 2.57352003e-05 1.96577002e-05
      1.23063046e-05 1.23063046e-05 4.49576182e-05 2.84466369e-05
      6.99826705e-06 6.99826705e-06 2.91931301e-05 2.76884512e-05
      2.76884512e-05 2.76884512e-05 4.41994307e-05 1.86060224e-05
      -2.55934101e-05 -2.55934101e-05 -3.73645048e-06 -1.06677435e-05
      -1.5458425e-05 -4.97624978e-06 1.56336173e-05 6.69066503e-06 0. 0.
      0. 0. 0. 3.63819454e-05 3.63819454e-05 3.63819454e-05
      3.63819454e-05 3.11916956e-05 -1.45961599e-06 -1.48885129e-05
      -1.86249636e-05 8.56985389e-06 2.03412856e-05 3.83030601e-06
      -3.10469622e-05 6.99826705e-06 4.96930188e-05 2.76884512e-05
      2.76884512e-05 2.76884512e-05 4.41994307e-05 1.86060224e-05
      -2.55934101e-05 -2.55934101e-05 -3.73645048e-06 -1.06677435e-05
      -1.5458425e-05 -4.97624978e-06 1.56336173e-05 6.69066503e-06 0. 0.
      0. 0. 0. 1.50467906e-06 1.50467906e-06 1.50467906e-06
      1.50467906e-06 -3.63368817e-05 -1.39103649e-05 3.80155439e-06
      3.80155439e-06 3.09963725e-05 3.90313544e-05 2.62568228e-05
      -8.62044271e-06 4.96930188e-05 5.49358765e-06 5.49358765e-06
      -1.65109795e-05 -1.65109795e-05 1.86060224e-05 1.86060224e-05
      1.86060224e-05 -2.55934101e-05 -3.73645048e-06 -1.06677435e-05
      -1.5458425e-05 -4.97624978e-06 1.56336173e-05 6.69066503e-06 0. 0.
      0. 0. 2.24265168e-05 2.24265168e-05 2.24265168e-05 2.24265168e-05
      9.22773688e-06 4.3631193e-05 8.94722234e-06 2.66591414e-05
      2.66591414e-05 5.5358636e-05 4.67137979e-05 2.26865523e-05
      7.62214597e-07 5.23626004e-05 5.49358765e-06 5.49358765e-06
      -1.65109795e-05 0. 1.86060224e-05 1.86060224e-05 -2.55934101e-05
      -2.55934101e-05 -3.73645048e-06 -1.06677435e-05 -1.5458425e-05
      -4.97624978e-06 1.56336173e-05 -6.60730564e-07 -7.35139565e-06 0.
      0. 2.24265168e-05 2.24265168e-05 2.24265168e-05 2.24265168e-05
      3.64225525e-05 3.20730833e-05 3.20730833e-05 1.49077368e-05
      4.97850051e-05 5.12896841e-05 3.16947589e-05 1.84895396e-06
      -9.47443368e-06 2.33804076e-05 3.29216164e-05 7.49862811e-05
      5.05437893e-05 -3.83157658e-06 0. 1.86060224e-05 1.86060224e-05
      -2.55934101e-05 -2.55934101e-05 -3.73645048e-06 1.13368251e-05
      6.54614314e-06 -4.97624978e-06 8.28222255e-06 -6.60730564e-07
      -7.35139565e-06 0. 0. 2.24265168e-05 2.24265168e-05 2.24265168e-05
      6.48687055e-05 3.2217391e-05 6.40688086e-05 6.40688086e-05
      8.17807304e-05 8.17807304e-05 5.86690767e-05 3.60706326e-05
      3.38446807e-05 2.10166127e-05 2.18407458e-05 2.68017702e-05
      2.96164599e-05 1.8172992e-05 -3.83157658e-06 -1.29140062e-05
      1.86060224e-05 1.86060224e-05 -2.55934101e-05 -2.55934101e-05
      -3.73645048e-06 1.13368251e-05 5.07455734e-05 -4.97624978e-06
      -1.89125949e-05 -2.78555472e-05 -7.35139565e-06 0. 0. 0.
      2.24265168e-05 3.28729766e-05 3.2217391e-05 5.02257308e-06
      1.77019774e-05 2.64162754e-05 3.54138974e-05 8.11180071e-05
      -9.87116618e-06 -3.11774311e-05 1.87848418e-05 8.92843843e-08
      8.34150524e-06 2.35927564e-06 1.57421491e-05 1.8172992e-05
      -3.83157658e-06 -1.29140062e-05 1.86060224e-05 1.86060224e-05
      -2.55934101e-05 -2.55934101e-05 1.82681179e-05 1.13368251e-05
      5.07455734e-05 1.09508164e-05 -2.985528e-06 -1.19284805e-05
      -7.93530853e-06 -2.38623761e-05 0. 0. 0. 1.04464589e-05
      -2.22048529e-05 -1.74039451e-05 1.37368716e-05 1.90648789e-05
      3.69185764e-05 5.65016744e-05 6.70841519e-06 2.10107955e-05
      5.21574293e-05 -1.38319056e-05 1.08564491e-05 -3.00115207e-05
      -1.6253578e-05 -3.83157658e-06 -3.83157658e-06 -2.55934101e-05
      1.86060224e-05 1.86060224e-05 -3.29448048e-05 -3.29448048e-05
      1.82681179e-05 1.13368251e-05 4.33941786e-05 1.09508164e-05
      -2.985528e-06 -1.19284805e-05 -7.93530853e-06 -2.38623761e-05
      -1.65109795e-05 0. 0. 0. -3.26513109e-05 -6.35825782e-05
      -2.87053135e-05 -3.45520311e-05 -4.28193453e-05 -3.19021929e-05
      -3.44171349e-05 8.33139256e-06 -1.73750614e-05 1.08809018e-05
      -3.1960808e-05 -3.00115207e-05 -1.6253578e-05 -2.47589051e-05
      -6.92992107e-05 -5.27882257e-05 1.86060224e-05 1.12546268e-05
      -3.29448048e-05 -3.29448048e-05 1.82681179e-05 1.13368251e-05
      1.6199363e-05 1.09508164e-05 -2.985528e-06 3.22709529e-05
      -7.93530853e-06 -2.99398762e-05 -1.65109795e-05 0. 0.
      -3.26513109e-05 -6.35825782e-05 -6.35825782e-05 -3.45520311e-05
      1.44482992e-05 -6.21055879e-05 -3.06806869e-05 -6.65971857e-06
      -4.85216951e-05 -1.58703806e-05 2.50649846e-05 4.42113833e-06
      -6.2007246e-05 -5.33179846e-05 -5.19537243e-05 -6.92992107e-05
      -8.58879503e-06 1.86060224e-05 -3.29448048e-05 -3.29448048e-05
      -3.29448048e-05 1.09167222e-05 1.13368251e-05 1.6199363e-05
      1.09508164e-05 -2.985528e-06 6.67754102e-06 -3.35287186e-05
      -2.99398762e-05 -1.65109795e-05 0. 0. -3.26513109e-05
      -6.35825782e-05 -6.35825782e-05 -4.70027771e-05 -7.2808657e-06
      6.65297193e-06 -1.33697267e-05 -2.01589573e-05 -2.39053625e-05
      2.26451666e-05 -2.14887223e-05 -4.97479996e-05 -2.56253024e-05
      -2.45182182e-05 -6.46331246e-05 -2.50997746e-05 -8.58879503e-06
      1.70046151e-05 -3.29448048e-05 -3.29448048e-05 -3.29448048e-05
      1.09167222e-05 1.13368251e-05 1.6199363e-05 -1.10537512e-05
      1.56204933e-05 -9.83343853e-06 -3.35287186e-05 -2.99398762e-05
      -1.65109795e-05 0. -3.26513109e-05 -3.63877625e-05 -6.35825782e-05
      -6.35825782e-05 -5.15813481e-05 -6.43315434e-05 -2.82242945e-05
      -6.33939417e-05 -4.53668581e-05 -1.46046514e-05 4.47303449e-07
      -7.11761504e-06 -1.98921443e-05 -1.52590728e-05 8.50648939e-06
      -4.6027104e-05 -2.50997746e-05 1.70046151e-05 -2.71948174e-05
      -3.29448048e-05 -3.29448048e-05 -7.35139565e-06 1.09167222e-05
      1.13368251e-05 2.35507578e-05 1.70283183e-05 1.56204933e-05
      -9.83343853e-06 -5.55332881e-05 -2.99398762e-05 -1.65109795e-05
      -3.26513109e-05 -3.63877625e-05 -6.35825782e-05 -6.35825782e-05
      -1.58561452e-05 -7.37547598e-05 -1.29003856e-05 1.53506662e-05
      -3.79735029e-05 1.61886583e-05 3.55075717e-05 2.74872e-05
      -2.84956423e-05 -2.09693826e-05 -1.52590728e-05 5.43765273e-05
      -1.11498375e-05 -2.50997746e-05 1.70046151e-05 -2.71948174e-05
      -3.29448048e-05 -3.29448048e-05 -7.35139565e-06 1.09167222e-05
      1.13368251e-05 5.07455734e-05 1.70283183e-05 1.56204933e-05
      -9.83343853e-06 -5.55332881e-05 -2.99398762e-05 -2.25884814e-05
      -3.26513109e-05 -6.35825782e-05 -6.35825782e-05 -7.4691452e-05
      -5.15813481e-05 -5.26374424e-05 -1.64499634e-05 -3.81130922e-05
      -2.64417249e-05 -1.74987726e-05 -1.08592631e-05 1.75574223e-05
      5.93793311e-06 -4.54001893e-05 -1.39424401e-05 2.87831172e-05
      2.27256387e-05 4.93634786e-07 1.70046151e-05 1.70046151e-05
      -3.29448048e-05 -3.29448048e-05 -3.29448048e-05 1.09167222e-05
      1.13368251e-05 5.07455734e-05 -8.56509178e-06 2.29718898e-05
      -9.83343853e-06 -5.55332881e-05 -2.99398762e-05 -5.52397942e-05
      -3.63877625e-05 -6.35825782e-05 -6.35825782e-05 -4.93915322e-05
      -6.8986461e-05 -2.68964232e-05 -6.15200188e-05 -5.1689025e-05
      -2.64417249e-05 -9.87792077e-07 1.76998146e-05 3.56138617e-06
      2.49855129e-05 3.10266223e-05 9.18342266e-06 4.1462521e-05
      3.54050426e-05 -3.92271431e-06 1.70046151e-05 -8.58879503e-06
      -3.29448048e-05 -3.29448048e-05 -1.09402372e-05 -1.46766879e-05
      1.13368251e-05 3.42345957e-05 -8.56509178e-06 2.29718898e-05
      -9.83343853e-06 -5.55332881e-05 -6.25911925e-05 -5.89762458e-05
      -3.63877625e-05 -6.35825782e-05 -7.4691452e-05 -0.000106659179
      -9.79013203e-05 -0.000127044317 -0.000116597854 -4.88682417e-05
      -4.88682417e-05 1.12222688e-05 2.37773165e-05 -8.16259762e-06
      -2.16618373e-05 -3.39954895e-05 6.00168241e-05 9.79007382e-05
      2.93275407e-05 4.1127485e-05 1.70046151e-05 -8.58879503e-06
      1.12546268e-05 -3.29448048e-05 -1.09402372e-05 -1.46766879e-05
      1.13368251e-05 3.42345957e-05 -8.56509178e-06 2.29718898e-05
      -3.1838008e-05 -5.55332881e-05 -6.63276369e-05 -5.89762458e-05
      -6.96600837e-05 -7.4691452e-05 -4.71655803e-05 -0.000128832588
      -0.00010771527 -0.000152785331 -0.000133078982 -0.000106604988
      -5.80982814e-05 -6.76611307e-05 1.35079824e-06 -8.16259762e-06
      -2.16618373e-05 -3.77319411e-05 4.45563892e-05 7.1969429e-05
      3.89807938e-05 -3.5442743e-05 2.9684019e-05 -8.58879503e-06
      1.12546268e-05 -3.29448048e-05 -1.09402372e-05 -1.46766879e-05
      1.13368251e-05 5.07455734e-05 3.56343407e-05 2.29718898e-05
      -3.1838008e-05 -5.55332881e-05 -3.3676326e-05 -4.24652644e-05
      -6.96600837e-05 -3.98141856e-05 -9.39553211e-05 -3.43897082e-05
      -0.000152785331 -0.000173712659 -0.000180845804 -0.000163841192
      -0.000112693626 -0.00015689306 -0.000101637772 -7.96332024e-05
      -5.2340929e-05 -7.60047551e-05 9.70357632e-06 4.76062014e-05
      2.6375119e-06 -4.54292385e-05 -8.12361322e-05 -2.50997746e-05
      1.12546268e-05 -3.29448048e-05 -1.09402372e-05 1.09167222e-05
      1.13368251e-05 5.07455734e-05 3.56343407e-05 2.90493899e-05
      -3.1838008e-05 -5.55332881e-05 -2.99398762e-05 -9.81395169e-06
      -3.41216037e-05 8.33784452e-06 -2.69317352e-05 -6.3569787e-05
      -6.27044137e-05 -0.000129952474 -0.000188197198 -0.000147330211
      -0.000141252705 -0.00018545214 -0.000151124172 -0.000129119609
      -0.000115285533 -7.3123214e-05 3.12460179e-05 -5.77007938e-07
      -5.15149768e-05 -0.000120685705 -8.12361322e-05 -2.50997746e-05
      1.12546268e-05 -3.29448048e-05 -1.09402372e-05 1.09167222e-05
      1.13368251e-05 5.07455734e-05 1.36297722e-05 3.42396379e-05
      -7.60374387e-05 -5.55332881e-05 -4.10487482e-05 -1.71863721e-05
      -3.26169247e-05 3.07643604e-05 2.01111143e-05 -5.39597604e-05
      -7.63917706e-05 -0.000108762564 -0.00019384957 -0.000149650135
      -0.000182301446 -0.000226500881 -0.000194829976 -9.89832406e-05
      -4.62522767e-05 -2.90284315e-05 -2.16770368e-05 -1.16858782e-05
      -6.2623847e-05 -0.000138086602 -0.000117215081 -6.10869392e-05
      -2.47325406e-05 -5.3872136e-05 -7.35139565e-06 1.09167222e-05
      1.13368251e-05 5.07455734e-05 3.56343407e-05 3.42396379e-05
      -3.54137264e-05 -2.99398762e-05 -3.36973499e-05 -1.71863721e-05
      -2.88804731e-05 -3.76453954e-07 4.6020974e-05 7.0834767e-06
      -4.89772283e-05 -5.04819072e-05 -0.000108446111 -6.42466839e-05
      -9.68979948e-05 -0.000141097422 -0.000105244428 -7.12572801e-05
      -3.94748895e-05 -2.90284315e-05 -2.52919817e-05 -4.68052895e-06
      -3.57757453e-05 -9.12968535e-05 -0.000109793342 -6.10869392e-05
      -2.47325406e-05 -5.3872136e-05 -2.82787241e-05 -1.10878464e-05
      1.13368251e-05 -1.5458425e-05 3.56343407e-05 3.42396379e-05
      -3.54137264e-05 -1.65109795e-05 -3.36973499e-05 -1.71863721e-05
      2.88716637e-06 -3.76453954e-07 -2.42388305e-05 4.30092332e-05
      3.69317313e-05 1.45052154e-05 -3.20155232e-05 1.21839075e-05
      -4.9523278e-05 -7.97266766e-05 -3.54431977e-05 -2.96072722e-06
      -6.66697088e-05 -2.90284315e-05 -3.11857093e-06 3.09921197e-05
      -7.47025551e-05 -7.77976165e-05 -9.86844752e-05 -6.71644448e-05
      -2.3458646e-05 -2.82787241e-05 -7.35139565e-06 -1.10878464e-05
      -1.06677435e-05 -1.5458425e-05 3.56343407e-05 3.42396379e-05
      -3.54137264e-05 -1.65109795e-05 -1.65109795e-05 0. -1.11088702e-05
      2.88716637e-06 3.18627135e-05 7.84313816e-05 8.00363268e-05
      3.51265953e-05 2.24471933e-05 6.66466221e-05 3.39953112e-05
      -1.02041195e-05 5.43969918e-07 3.30264411e-05 -3.06825423e-05
      6.95873541e-06 1.49215921e-05 -1.42010022e-05 -6.35936813e-05
      -9.52451774e-06 2.6791879e-06 -1.4666296e-05 -3.1670912e-05
      -7.35139565e-06 -7.35139565e-06 -1.10878464e-05 -1.06677435e-05
      -1.5458425e-05 1.36297722e-05 3.42396379e-05 -3.54137264e-05
      -1.65109795e-05 -1.65109795e-05 0. 0. 2.44424955e-05
      9.43619398e-06 6.38584388e-05 6.60913793e-05 4.04979728e-05
      3.47955429e-05 6.66466221e-05 6.66466221e-05 1.53892906e-05
      6.63087194e-05 3.30264411e-05 -2.02360825e-05 -7.0373012e-06
      -4.50045845e-05 -1.54715362e-05 -2.12519153e-05 -9.52451774e-06
      -1.00002153e-05 -1.4666296e-05 -3.1670912e-05 -1.34288966e-05
      -7.35139565e-06 -1.10878464e-05 -1.06677435e-05 -1.5458425e-05
      1.36297722e-05 -9.9597919e-06 -3.54137264e-05 -1.65109795e-05
      -1.65109795e-05 0. 0. 1.04464589e-05 -6.06452113e-06
      2.59312055e-05 1.65667752e-05 3.89932939e-05 4.04979728e-05
      4.20178403e-05 -2.18159039e-06 3.38102086e-06 4.37603485e-05
      1.11105755e-05 -7.83685318e-05 -4.16045041e-05 -1.44862361e-05
      1.01218739e-05 -2.12519153e-05 -9.52451774e-06 -1.00002153e-05
      -1.4666296e-05 -5.88657276e-05 -4.06237123e-05 -7.35139565e-06
      -1.10878464e-05 -1.80191382e-05 -1.5458425e-05 -3.05696594e-05
      -9.9597919e-06 -3.54137264e-05 -1.65109795e-05 0. 0. 0.
      1.04464589e-05 3.24510256e-05 1.04464589e-05 1.6848775e-05
      2.95281789e-05 2.95281789e-05 4.65327939e-05 2.43379291e-05
      4.99313392e-05 1.05842173e-05 2.66701645e-05 1.62450488e-05
      -8.10056918e-06 -9.86996724e-07 -3.24585329e-07 -2.12519153e-05
      4.99089583e-06 -3.55936245e-05 -1.4666296e-05 -3.1670912e-05
      -6.07750098e-06 -7.35139565e-06 -1.10878464e-05 -1.80191382e-05
      -1.5458425e-05 -3.05696594e-05 -9.9597919e-06 -9.82031543e-06
      -1.65109795e-05 0. 0. 0. 2.20045677e-05 3.24510256e-05
      6.85761688e-06 6.85761688e-06 3.88533444e-05 5.15327447e-05
      6.85373598e-05 2.43379291e-05 4.99313392e-05 4.25799444e-05
      6.977476e-05 8.63543391e-05 5.82722714e-05 1.4735253e-05
      7.02681018e-06 3.41304913e-05 -2.70048295e-05 -5.25982396e-05
      -4.65207377e-05 -2.71948174e-05 0. 0. -1.10878464e-05
      -1.80191382e-05 -1.5458425e-05 -3.05696594e-05 -9.9597919e-06
      6.69066503e-06 0. 0. 0. 0. 2.20045677e-05 -3.58884199e-06
      6.85761688e-06 6.85761688e-06 3.88533444e-05 5.15327447e-05
      1.16585261e-05 1.16585261e-05 3.72519353e-05 2.99005405e-05
      5.70953562e-05 6.27792397e-05 6.27792397e-05 4.62552816e-05
      5.36066764e-05 3.81219324e-05 3.81219324e-05 -6.07750098e-06 0. 0.
      0. 0. -3.73645048e-06 -1.06677435e-05 -1.5458425e-05
      -3.05696594e-05 1.56336173e-05 6.69066503e-06 0. 0. 0. 0.
      -3.58884199e-06 -3.58884199e-06 -3.58884199e-06 -3.58884199e-06
      -3.58884199e-06 -3.58884199e-06 -3.07836599e-05 -5.19024888e-06
      -5.19024888e-06 -1.25416445e-05 -7.35139565e-06 2.03370564e-05
      2.03370564e-05 1.42595554e-05 2.16109511e-05 3.81219324e-05
      3.81219324e-05 -6.07750098e-06 0. 0. 0. 0. -3.73645048e-06
      -1.06677435e-05 -1.5458425e-05</_></support_vectors>
  <uncompressed_sv_total>68</uncompressed_sv_total>
  <uncompressed_support_vectors>
    <_>
      255. 255. 255. 0. 0. 0. 0. 0. 0. 0. 0. 0. 0. 0. 0. 0. 0. 0. 0. 0.
      0. 0. 0. 0. 0. 0. 0. 0. 0. 255. 255. 255. 255. 255. 255. 0. 0. 0.
      0. 0. 0. 0. 0. 0. 0. 0. 0. 0. 0. 0. 0. 0. 0. 0. 0. 0. 0. 0. 0. 0.
      0. 255. 255. 255. 255. 255. 255. 0. 0. 0. 0. 0. 0. 0. 0. 0. 0. 0.
      0. 0. 0. 0. 0. 0. 0. 0. 0. 0. 0. 0. 0. 0. 0. 255. 255. 255. 255.
      255. 255. 0. 0. 0. 0. 0. 0. 0. 0. 0. 0. 0. 0. 0. 0. 0. 0. 0. 0. 0.
      0. 0. 0. 0. 0. 0. 0. 255. 255. 255. 255. 255. 255. 0. 0. 0. 0. 0.
      0. 0. 0. 0. 0. 0. 0. 0. 0. 0. 0. 0. 255. 0. 0. 0. 0. 0. 0. 0. 0.
      255. 255. 255. 255. 255. 255. 0. 0. 0. 0. 0. 0. 0. 0. 0. 0. 0. 0.
      0. 0. 0. 255. 255. 255. 255. 0. 0. 0. 0. 0. 0. 0. 255. 255. 255.
      255. 255. 255. 0. 0. 0. 0. 0. 0. 0. 0. 0. 0. 0. 0. 0. 0. 255. 255.
      255. 255. 255. 0. 0. 0. 0. 0. 0. 0. 255. 255. 255. 255. 255. 255.
      0. 0. 0. 0. 0. 0. 0. 0. 0. 0. 0. 0. 255. 255. 255. 255. 255. 255.
      255. 0. 0. 0. 0. 0. 0. 0. 255. 255. 255. 255. 255. 255. 0. 0. 0.
      0. 0. 0. 0. 0. 0. 0. 0. 255. 255. 255. 255. 255. 255. 255. 255. 0.
      0. 0. 0. 0. 0. 0. 255. 255. 255. 255. 255. 255. 0. 0. 0. 0. 0. 0.
      0. 0. 0. 0. 0. 255. 255. 255. 255. 255. 255. 255. 255. 0. 0. 0. 0.
      0. 0. 0. 255. 255. 255. 255. 255. 255. 0. 0. 0. 0. 0. 0. 0. 0. 0.
      0. 0. 0. 255. 0. 0. 255. 255. 255. 255. 0. 0. 0. 0. 0. 0. 0. 255.
      255. 255. 255. 255. 255. 0. 0. 0. 0. 0. 0. 0. 0. 0. 0. 0. 0. 0. 0.
      0. 255. 255. 255. 255. 0. 0. 0. 0. 0. 0. 0. 255. 255. 255. 255.
      255. 255. 0. 0. 0. 0. 0. 0. 0. 0. 0. 0. 0. 0. 0. 0. 0. 255. 255.
      255. 255. 0. 0. 0. 0. 0. 0. 0. 255. 255. 255. 255. 255. 255. 0. 0.
      0. 0. 0. 0. 0. 0. 0. 0. 0. 0. 0. 0. 0. 255. 255. 255. 255. 0. 0.
      0. 0. 0. 0. 0. 255. 255. 255. 255. 255. 255. 0. 0. 0. 0. 0. 0. 0.
      0. 0. 0. 0. 0. 0. 0. 0. 255. 255. 255. 255. 0. 0. 0. 0. 0. 0. 0.
      255. 255. 255. 255. 255. 255. 0. 0. 0. 0. 0. 0. 0. 0. 0. 0. 0. 0.
      0. 0. 0. 255. 255. 255. 255. 0. 0. 0. 0. 0. 0. 0. 255. 255. 255.
      255. 255. 255. 0. 0. 0. 0. 0. 0. 0. 0. 0. 0. 0. 0. 0. 0. 0. 255.
      255. 255. 0. 0. 0. 0. 0. 0. 0. 0. 255. 255. 255. 255. 255. 255. 0.
      0. 0. 0. 0. 0. 0. 0. 0. 0. 0. 0. 0. 0. 0. 255. 255. 255. 0. 0. 0.
      0. 0. 0. 0. 0. 255. 255. 255. 255. 255. 255. 0. 0. 0. 0. 0. 0. 0.
      0. 0. 0. 0. 0. 0. 0. 0. 255. 255. 255. 0. 0. 0. 0. 0. 0. 0. 0.
      255. 255. 255. 255. 255. 255. 0. 0. 0. 0. 0. 0. 0. 0. 0. 0. 0. 0.
      0. 0. 0. 255. 255. 255. 0. 0. 0. 0. 0. 0. 0. 0. 255. 255. 255.
      255. 255. 255. 0. 0. 0. 0. 0. 0. 0. 0. 0. 0. 0. 0. 0. 0. 0. 255.
      255. 255. 0. 0. 0. 0. 0. 0. 0. 0. 255. 255. 255. 255. 255. 255. 0.
      0. 0. 0. 0. 0. 0. 0. 0. 0. 0. 0. 0. 0. 255. 255. 255. 255. 0. 0.
      0. 0. 0. 0. 0. 0. 255. 255. 255. 255. 255. 255. 0. 0. 0. 0. 0. 0.
      0. 0. 0. 0. 0. 0. 0. 0. 255. 255. 255. 255. 0. 0. 0. 0. 0. 0. 0.
      0. 255. 255. 255. 255. 255. 255. 0. 0. 0. 0. 0. 0. 0. 0. 0. 0. 0.
      0. 0. 0. 255. 255. 255. 255. 0. 0. 0. 0. 0. 0. 0. 0. 255. 255.
      255. 255. 255. 255. 0. 0. 0. 0. 0. 0. 0. 0. 0. 0. 0. 0. 0. 0. 255.
      255. 255. 255. 0. 0. 0. 0. 0. 0. 0. 0. 255. 255. 255. 255. 255.
      255. 0. 0. 0. 0. 0. 0. 0. 0. 0. 0. 0. 0. 0. 0. 255. 255. 255. 255.
      0. 0. 0. 0. 0. 0. 0. 0. 255. 255. 255. 255. 255. 255. 0. 0. 0. 0.
      0. 0. 0. 0. 0. 0. 0. 0. 0. 0. 255. 255. 255. 255. 0. 0. 0. 0. 0.
      0. 0. 0. 255. 255. 255. 255. 255. 255. 0. 0. 0. 0. 0. 0. 0. 0. 0.
      0. 0. 0. 0. 0. 0. 255. 255. 0. 0. 0. 0. 0. 0. 0. 0. 0. 255. 255.
      255. 255. 255. 255. 0. 0. 0. 0. 0. 0. 0. 0. 0. 0. 0. 0. 0. 0. 0.
      0. 0. 0. 0. 0. 0. 0. 0. 0. 0. 0. 255. 255. 255. 255. 255. 255. 0.
      0. 0. 0. 0. 0. 0. 0. 0. 0. 0. 0. 0. 0. 0. 0. 0. 0. 0. 0. 0. 0. 0.
      0. 0. 0. 255. 255. 255. 255. 255. 255. 0. 0. 0. 0. 0. 0. 0. 0. 0.
      0. 0. 0. 0. 0. 0. 0. 0. 0. 0. 0. 0. 0. 0. 0. 0. 0. 255. 255. 255.
      255. 255. 255. 0. 0. 0. 0. 0. 0. 0. 0. 0. 0. 0. 0. 0. 0. 0. 0. 0.
      0. 0. 0. 0. 0. 0. 0. 0. 0. 255. 255. 255.</_>
    <_>
      255. 255. 0. 0. 0. 0. 0. 0. 0. 0. 0. 0. 0. 0. 0. 0. 0. 0. 0. 0. 0.
      0. 0. 0. 0. 0. 0. 0. 0. 0. 0. 0. 255. 255. 0. 0. 0. 0. 0. 0. 0. 0.
      0. 0. 0. 0. 0. 0. 0. 0. 0. 0. 0. 0. 0. 0. 0. 0. 0. 0. 0. 0. 0. 0.
      255. 255. 0. 0. 0. 0. 0. 0. 0. 0. 0. 0. 0. 0. 0. 0. 0. 0. 0. 0. 0.
      0. 0. 0. 0. 0. 0. 0. 0. 0. 0. 0. 255. 255. 0. 0. 0. 0. 0. 0. 0. 0.
      0. 0. 0. 0. 0. 0. 0. 0. 0. 0. 0. 0. 0. 0. 0. 0. 0. 0. 0. 0. 0. 0.
      255. 255. 0. 0. 0. 0. 0. 0. 0. 0. 0. 0. 0. 0. 0. 0. 0. 0. 0. 0. 0.
      0. 0. 0. 0. 0. 0. 0. 0. 0. 0. 0. 255. 255. 0. 0. 0. 0. 0. 0. 0. 0.
      0. 0. 0. 0. 0. 0. 0. 0. 0. 0. 0. 0. 0. 0. 0. 0. 0. 0. 0. 0. 0. 0.
      255. 255. 0. 0. 0. 0. 0. 0. 0. 0. 0. 0. 0. 0. 0. 0. 0. 0. 0. 0. 0.
      0. 0. 0. 0. 0. 0. 0. 0. 0. 0. 0. 255. 255. 0. 0. 0. 0. 0. 0. 0. 0.
      0. 0. 0. 0. 0. 0. 0. 0. 0. 0. 0. 0. 0. 0. 0. 0. 0. 0. 0. 0. 0. 0.
      255. 255. 0. 0. 0. 0. 0. 0. 0. 0. 0. 255. 0. 0. 0. 0. 0. 0. 0. 0.
      0. 0. 0. 0. 0. 0. 0. 0. 0. 0. 0. 0. 255. 255. 0. 0. 0. 0. 0. 0. 0.
      0. 255. 255. 255. 0. 0. 0. 0. 0. 0. 0. 0. 0. 0. 0. 0. 0. 0. 0. 0.
      0. 0. 0. 255. 255. 0. 0. 0. 0. 0. 0. 0. 255. 255. 255. 255. 0. 0.
      0. 0. 0. 0. 0. 0. 0. 0. 0. 0. 0. 0. 0. 0. 0. 0. 0. 255. 255. 0. 0.
      0. 0. 0. 0. 0. 255. 255. 255. 255. 0. 0. 0. 0. 0. 0. 0. 0. 0. 0.
      0. 0. 0. 0. 0. 0. 0. 0. 0. 255. 255. 0. 0. 0. 0. 0. 0. 255. 255.
      255. 255. 255. 255. 0. 0. 0. 0. 0. 0. 0. 0. 0. 0. 0. 0. 0. 0. 0.
      0. 0. 0. 255. 255. 0. 0. 0. 0. 0. 255. 255. 255. 255. 255. 255.
      255. 0. 0. 0. 0. 0. 0. 0. 0. 0. 0. 0. 0. 0. 0. 0. 0. 0. 0. 255.
      255. 0. 0. 0. 0. 0. 255. 255. 255. 255. 255. 255. 255. 0. 0. 0. 0.
      0. 0. 0. 0. 0. 0. 0. 0. 0. 0. 0. 0. 0. 0. 255. 255. 0. 0. 0. 0. 0.
      0. 255. 0. 0. 255. 255. 255. 0. 0. 0. 0. 0. 0. 0. 0. 0. 0. 0. 0.
      0. 0. 0. 0. 0. 0. 255. 255. 0. 0. 0. 0. 0. 0. 0. 0. 0. 255. 255.
      255. 0. 0. 0. 0. 0. 0. 0. 0. 0. 0. 0. 0. 0. 0. 0. 0. 0. 0. 255.
      255. 0. 0. 0. 0. 0. 0. 0. 0. 0. 255. 255. 255. 0. 0. 0. 0. 0. 0.
      0. 0. 0. 0. 0. 0. 0. 0. 0. 0. 0. 0. 255. 255. 0. 0. 0. 0. 0. 0. 0.
      0. 0. 255. 255. 255. 0. 0. 0. 0. 0. 0. 0. 0. 0. 0. 0. 0. 0. 0. 0.
      0. 0. 0. 255. 255. 0. 0. 0. 0. 0. 0. 0. 0. 0. 255. 255. 255. 0. 0.
      0. 0. 0. 0. 0. 0. 0. 0. 0. 0. 0. 0. 0. 0. 0. 0. 255. 255. 0. 0. 0.
      0. 0. 0. 0. 0. 0. 255. 255. 255. 0. 0. 0. 0. 0. 0. 0. 0. 0. 0. 0.
      0. 0. 0. 0. 0. 0. 0. 255. 255. 0. 0. 0. 0. 0. 0. 0. 0. 0. 255.
      255. 255. 0. 0. 0. 0. 0. 0. 0. 0. 0. 0. 0. 0. 0. 0. 0. 0. 0. 0.
      255. 255. 0. 0. 0. 0. 0. 0. 0. 0. 0. 255. 255. 255. 0. 0. 0. 0. 0.
      0. 0. 0. 0. 0. 0. 0. 0. 0. 0. 0. 0. 0. 255. 255. 0. 0. 0. 0. 0. 0.
      0. 0. 0. 0. 255. 255. 255. 0. 0. 0. 0. 0. 0. 0. 0. 0. 0. 0. 0. 0.
      0. 0. 0. 0. 255. 255. 0. 0. 0. 0. 0. 0. 0. 0. 0. 0. 255. 255. 255.
      0. 0. 0. 0. 0. 0. 0. 0. 0. 0. 0. 0. 0. 0. 0. 0. 0. 255. 255. 0. 0.
      0. 0. 0. 0. 0. 0. 0. 0. 255. 255. 255. 0. 0. 0. 0. 0. 0. 0. 0. 0.
      0. 0. 0. 0. 0. 0. 0. 0. 255. 255. 0. 0. 0. 0. 0. 0. 0. 0. 0. 0.
      255. 255. 255. 0. 0. 0. 0. 0. 0. 0. 0. 0. 0. 0. 0. 0. 0. 0. 0. 0.
      255. 255. 0. 0. 0. 0. 0. 0. 0. 0. 0. 0. 255. 255. 255. 0. 0. 0. 0.
      0. 0. 0. 0. 0. 0. 0. 0. 0. 0. 0. 0. 0. 255. 255. 0. 0. 0. 0. 0. 0.
      0. 0. 0. 0. 255. 255. 255. 0. 0. 0. 0. 0. 0. 0. 0. 0. 0. 0. 0. 0.
      0. 0. 0. 0. 255. 255. 0. 0. 0. 0. 0. 0. 0. 0. 0. 0. 0. 255. 255.
      0. 0. 0. 0. 0. 0. 0. 0. 0. 0. 0. 0. 0. 0. 0. 0. 0. 255. 255. 0. 0.
